{"h": 48, "w": 48, "quantize_q": 4096.0, "activation_q": 4096.0, "c1": 24, "c2": 48, "c3": 64, "note": "Weights are quantized by quantize_q, normalized input activations are quantized by activation_q, and fused biases are quantized by activation_q * quantize_q. Final public ZK GAP uses per-channel sums; divide by activation_q * 36 to compare against PyTorch global average pool outputs.", "w1": [-415, -708, -258, -663, 229, -520, -266, 447, 200, 587, -585, -456, 462, -71, 278, 765, 257, 1238, -547, 352, -324, 277, -554, -490, 941, 986, 373, 31, -772, -27, -134, 205, 300, -302, -134, -94, -963, -853, 69, 246, 497, 526, 447, 362, 54, -1093, -865, -568, 114, 3, -101, -227, -603, 466, -447, 26, 1478, -1299, -850, -506, -53, -796, -717, -1791, 257, 1481, -330, 1245, -87, -1262, -251, 1149, -745, 252, -421, -411, -141, 993, -700, 881, 1002, 723, 426, 206, 412, 812, 650, -609, -247, 502, 963, -246, 361, -559, 554, 333, -1239, -791, -614, -608, 226, 486, 353, 907, -120, -1386, -703, -691, -1869, -423, 2168, 733, -460, 1280, 546, -576, -479, -1651, 1040, 533, 1334, 459, 548, 1896, 469, -1837, -1073, 1050, 701, -479, -1144, -128, 1813, -1512, -872, -374, -251, -542, -73, 295, -292, -267, -486, 288, -180, -239, 14, -273, -156, -277, -239, -381, -10, 108, -421, -232, -139, -372, -348, 256, -81, -49, 1552, 527, -683, 70, -168, -819, 1954, -956, -999, 663, -233, 1383, 191, 674, -1187, 1925, -2395, 1604, 31, -597, -1088, 565, -922, -106, 858, -1375, 1193, 1316, 658, -545, 2227, -1792, 31, 1608, -1414, -597, 50, -1909, -787, 1328, -1921, 1941, -802, -2108, 1018, 63, -571, -1100, -322, 644, 2220, -223, -1907, 1807, 135, 243, 397, 37, 72, -465, 847, 427, 705, 205, 426, 180, -15, -340, -472, 343, 631, 618, -354, 511, -163, -27, -114, 150, -37, 455, -99, 1655, -2087, -2108, -1963, -1093, 1585, -588, 2673, -826, 1178, -2886, -2019, -2617, 2358, 2438, 1197, 1596, -2545, 2517, 2122, 1078, -3637, 665, 3123, 426, -551, -1997, 18, 363, 166, -534, -104, -569, -444, 200, 50, -422, 88, 427, -246, -352, -529, -295, -69, -223, -17, -455, 374, -611, -264, -406, -603, 355, -124, 741, -1170, 395, -360, -1349, -585, 977, -201, -275, -461, 368, -870, 996, -114, -70, 1707, 1318, -1232, 880, -780, 1212, -618, -1029, -1189, 831, 123, -482, -981, 381, -444, 1389, 703, 799, -653, -116, -1075, 68, 9, -805, -259, 259, 633, 108, 479, -569, -915, -1093, -803, 1112, 475, -118, -1102, -784, -1690, -875, 1038, -726, 168, 1663, -905, -277, -1487, 1133, 219, 1250, 546, -1099, 282, 140, -12, -2415, 1545, 1117, -533, -2091, -1153, 222, -718, 107, -2180, 2127, -584, -131, 116, -434, -669, 253, 933, -256, -119, -1396, -166, -907, 677, 878, -678, 798, 797, 137, -1354, 328, -638, 20, 914, 313, 136, 444, 127, 278, -590, -869, -136, 462, -82, 838, 33, 343, -303, 216, -1041, 769, 42, 769, 544, 241, -360, -606, 179, -697, -36, -339, 1180, -522, 525, 721, -963, 477, 743, -744, -393, 480, -671, 1020, 307, -777, -335, -342, -62, 263, 403, 711, 1027, 683, -706, 710, 358, -253, -58, 409, 51, 139, -115, 204, 5, -302, 379, 164, 235, 241, 392, 650, 219, -103, 290, 285, 30, -9, -152, 273, 642, 163, -291, -320, -260, 458, -258, -288, 551, 695, 35, -753, -483, -841, -169, -127, -673, 33, 276, 7, -722, -785, -100, 29, -95, -68, 60, 142, 816, -836, -8, 315, -452, -993, 652, 483, 752, -491, 459, -874, -344, 357, 1537, -663, -277, 142, -1260, -68, -2488, 636, 2171, 1928, 242, -1528, -1270, 1318, 354, -1958, 139, 1610, -386, -593, 274, 443, 1075, 1, -1174, 1838, -432, -1647, 1035, -1365, 1649, 517, 1410, -1661, -7, 1469, -1688, -1779, 598, -728, 203, 296, -1166, 440, 1425, -1092, -434, 461, -473, -29, -1251, -264, 233, -637, 399, -139, -142, 172, 1014, -1, -341, 810, -214, 439, -939, -914, 173, 234, -394, 93, 989, -1462, -886, 313, -655, -232, 1039, -581, -42, -459, 496, 793, 1089, -993, -422, 492, -278, 1684, 184, -70, -673, 849, -110, -129, 1251, -1388, 1851, 213, -267, -834, 502, -89, -174, 627, 1699, 990, -1673, -233, -1455, -92, -261, -500, 1104, 1176, 898, 158, -981, -1295, -1077, 1290, 686, 709, -14, -933, 491, -1412, -766, 1130, -544, 245], "b1": [-3978570, 2573852, -6066743, -164362, -6581614, 23660, 741828, -1154554, -6983325, -8037613, 6252780, -5136138, 8220459, -1143421, -3774696, -3407222, -9442572, -1845769, 1224958, -4299635, -64771, -2151829, -5047886, 748104], "w2": [-337, 147, -144, -265, -210, -551, 67, -192, -327, 582, -134, -129, 124, -1, -138, 11, -196, -109, -19, -88, -208, -132, -27, -399, -77, 38, -126, -104, 175, -17, -402, -383, -311, -417, -57, -192, -384, -410, -97, 148, 383, 287, -103, 330, 318, -90, -232, -217, -313, -329, -39, 123, -31, 122, 51, 208, 220, 115, 162, 13, -149, -484, -350, 264, -70, -32, 33, -38, 148, 577, -48, 112, -448, 165, -375, 60, 477, 183, -87, -20, -245, -277, -189, -117, 50, 263, 85, 40, 462, 481, 275, 164, -5, -360, -261, -335, -15, -130, -225, 385, -126, -189, -24, -446, -371, -75, -553, -75, -410, -369, -90, 217, 116, 60, 625, 142, 122, -79, -13, -488, -90, -33, -127, -120, -364, -432, 150, 30, -229, -467, -156, -597, -395, -470, -163, -394, -26, -470, 110, -104, -431, 358, 225, -122, -49, 53, -372, 134, -56, -160, 41, 175, 414, -257, -304, -605, -329, -36, -116, 154, 330, -78, 159, -98, -6, -327, -252, -701, -28, -451, -140, 78, -96, -335, 205, 200, -42, 328, 548, 377, 270, -90, 241, 199, 40, 79, -16, 78, 258, -45, -164, -265, 79, -481, 6, -170, -560, -26, -82, 100, -94, -33, 176, -121, -322, -151, -447, 321, 52, 383, -195, -450, 296, -705, -294, -421, 279, -14, -89, 8, -116, -136, -265, -304, -278, -224, 367, 46, 106, 545, 13, -48, 227, 247, -300, -253, -20, 115, -144, -380, -250, -35, 102, 256, -31, 18, 147, -196, -110, 311, 175, -120, 253, -245, -401, -314, -469, -287, -539, -214, -157, 36, 425, 244, -35, 183, -389, -184, 184, -409, 63, -114, -116, -579, 322, -199, -2, 162, 6, -119, 45, 106, -220, -372, 44, -29, -349, 231, 66, 119, -280, 147, 200, -279, -194, -141, -441, 187, -200, 36, -439, -329, -392, -579, -218, 361, -98, 431, 278, 163, -95, -476, 308, 42, -14, 268, 44, -495, 706, -49, -393, 267, 190, -1, -135, 90, -34, -711, -231, 74, -265, -292, 170, -199, 37, -283, -196, -262, -433, 209, -40, -5, -361, -37, -167, -538, -103, -598, 85, -442, -622, 78, 112, -43, 32, 120, -173, 366, -295, 123, 205, 206, 18, -158, 292, 217, -170, -286, -173, 450, 436, 264, 441, 377, 81, -320, -329, -226, -219, 193, -157, 438, 74, -156, -34, -125, 95, -158, -478, -650, -546, -447, -565, -498, -209, 70, 178, 228, -434, -282, 283, -545, -425, -113, -327, 355, -61, 131, -184, -243, -140, 240, -106, 148, -328, -378, -102, -179, 166, 146, 47, 220, -173, -308, 684, 523, -369, 34, 131, -112, -282, 24, -119, -264, 67, -351, -392, -306, -226, -467, -249, 590, 264, 264, -239, -270, -272, -46, -139, -83, 156, -180, 125, -98, -245, 251, -218, 470, 216, 128, 186, 61, -16, -138, -141, 127, -135, 248, -315, 77, -406, -321, 22, 373, -142, 201, 253, -90, -107, 109, -494, -317, -30, 166, -60, -112, -443, 39, -279, 222, -38, 217, 511, 364, -12, 209, 49, 42, -311, 80, -37, 62, 491, 294, -57, 70, -57, 244, 10, 248, 10, -262, -13, -345, -220, -227, -145, 458, 33, -436, 291, 188, 277, -18, 251, -49, -172, -107, -250, -209, -450, -52, -82, -63, -487, 65, -47, 85, 91, -133, 89, 19, 115, -368, -147, -76, -87, -246, -510, -150, -116, 38, -147, 412, 180, 34, 419, 161, 538, -344, 50, 272, -109, -488, -295, -135, -11, 69, -83, 74, -124, -138, -552, 166, -293, 53, -293, 316, -140, -138, -36, -178, -310, -267, 211, -172, -77, -118, 122, -286, 246, 152, -170, 446, 622, 314, 156, -17, 105, -13, -102, -145, -396, -185, -248, 110, -335, -498, -529, -161, -217, 146, -379, -386, -255, -382, -130, 261, 465, 375, 273, -457, 31, -302, -632, -24, 116, -203, 433, -7, 204, 323, 141, 124, 199, 239, -3, 283, -99, 339, 112, 371, -150, -377, -50, -189, -198, 34, 62, 61, -193, 11, -205, -125, -207, -58, -182, -440, -192, -46, -398, -87, -128, -30, 168, 304, -241, -193, -585, -360, -6, 187, 322, 29, 47, 103, -313, -184, -35, -196, -171, -134, -201, 132, -103, -27, 284, -390, -233, -219, 201, 173, -94, -464, -255, 333, 292, 334, 378, 154, 333, 740, 513, -102, 237, 355, -312, 98, -55, -587, -163, -127, -298, 126, -491, -410, -2, 85, 90, 266, 229, -196, 148, 156, 173, 320, -126, 239, 561, -110, -357, -226, -263, -113, 51, 371, 143, 25, 166, 270, 463, 242, 26, 317, 239, 334, 37, -156, -456, -117, -65, -314, -301, 105, 50, -9, -189, -91, 211, -271, -121, 106, 76, -2, 298, 89, 9, 95, 278, 311, -11, 469, -228, 350, 50, 37, -142, 200, 228, -79, -155, -22, -150, -85, 407, 308, 75, -69, -221, -23, -14, -213, -388, 124, -99, 18, 316, 473, 148, 437, 713, -57, -120, 274, 57, -102, 365, -143, 188, 500, -637, -448, 30, -132, 44, -137, -113, 262, 368, -280, 76, 561, -475, -266, -151, -29, 160, 168, 90, -329, -162, -131, -380, -95, 155, 39, -56, -355, -177, 40, -157, -25, 174, 13, 168, 97, 334, 192, 359, 281, -86, 281, 42, -56, 123, 301, 526, 581, -243, -45, 130, -495, -147, -137, 342, 307, 237, -54, 57, -427, -92, -98, -362, -220, -14, -491, 439, 221, 577, -197, -85, -217, 127, -128, -105, -30, 110, -210, 31, 302, -56, -400, -58, 88, 523, 120, 264, 22, -358, -579, 43, 398, 254, 140, -44, 229, -716, -183, -79, -20, 298, -404, 136, 258, -61, 145, 72, -19, 157, -36, 59, -380, -357, -484, 122, 200, 233, -177, -28, 98, 21, 317, 219, 88, 50, 239, 236, 80, 101, 43, -141, -294, -302, -349, 349, 265, 121, 134, 120, -140, 57, -115, 20, -45, 17, 11, -437, -208, 398, 98, 269, 150, -76, 346, 105, 279, 107, 34, -259, -331, -19, 1, 215, -123, -340, 104, 237, 16, 28, -199, -35, -23, 25, -175, -55, -47, -120, -436, -31, 43, 84, 76, 70, -535, -109, -109, -643, -351, -523, 127, 28, 322, -257, 168, 11, -68, -289, -464, 84, -165, 367, -115, -224, -178, 143, -60, -72, -46, 54, 190, -128, -171, -571, -526, -526, 63, 19, -48, -354, 591, 432, 307, 16, -163, -226, -31, 59, -48, 272, 143, -34, -762, -288, -529, -237, 141, -174, 125, -8, 78, -219, 189, 253, -12, -74, -135, 85, -351, -60, -243, 10, -248, 385, -102, 23, 33, 121, -180, 377, 185, -123, 287, 86, 83, 463, 450, 967, 328, -12, 53, 150, 437, -104, 121, -82, -127, 82, 123, 21, -2, -25, -212, -79, -53, -355, 183, 645, 47, -250, -189, 94, -87, -203, -150, -741, -77, 155, -5, -336, -96, 100, 162, -41, -493, -330, -86, 27, -65, 288, -404, -184, 271, -433, -609, -99, 196, 461, 84, 283, 169, 10, -190, -122, -232, -376, -234, -111, -515, -399, -156, -402, 44, -87, 95, 154, 131, -195, 157, -198, 248, 56, 270, -25, -34, 259, -148, -130, 71, 69, -179, 360, 483, -234, 518, 130, 162, 244, -197, -154, 179, 317, 218, -26, 21, 267, -163, -312, 291, -451, -381, -123, -405, -552, 53, -346, 9, -229, -479, -508, -79, -283, -269, 137, -592, 227, 323, -303, -57, 430, 233, -332, 375, 353, -408, -22, 473, -9, -85, -11, -39, -236, -671, 79, -48, -291, 278, 139, -418, -109, -530, -212, 97, -237, 208, 538, -10, -27, -1, -239, 92, 118, -211, 341, 179, 130, -219, -313, -532, 161, -199, 219, 336, 159, 278, -326, 264, 274, -110, -253, 108, 252, 229, 62, -339, -321, -405, -763, 323, 181, 473, 270, -99, 61, -123, -412, -506, -352, -349, -237, 177, 289, -249, -18, 117, -8, -300, -404, -895, 139, -393, -128, 97, 31, -47, -202, -69, 163, 261, -82, -200, 487, 63, 42, 89, -576, 121, 233, 431, 112, 63, 177, 48, 117, 36, 238, 193, 90, 85, 123, 221, 274, 15, 76, 239, 553, -209, -142, -10, -526, -2, -280, 242, 606, 309, 29, 19, 303, 158, 107, 756, 564, 139, 18, -149, -167, -243, -45, -127, -273, -48, 150, -24, 6, 206, 167, 294, 244, 134, 229, 330, -324, -519, -569, -426, -627, -45, -158, -81, 269, -212, -296, -187, -167, -253, 269, 72, 72, 121, 85, -134, 358, 276, 227, 456, 322, 78, 616, 119, -124, -167, -109, -165, -234, -23, -525, -187, -247, 161, -45, 48, 187, 221, 13, 238, 273, 186, -272, 13, -67, 214, 473, -228, 71, 490, 66, 283, 194, 299, 318, 90, 129, -354, -142, 80, -155, -159, 68, -151, 9, -445, -175, -125, 270, 200, 30, 349, -198, -136, -52, -18, 82, 425, 194, 286, 59, 126, 96, -21, 44, -202, -531, -367, -58, -23, -31, 193, -64, -105, 683, -71, 183, 67, 442, 471, 702, 449, 348, 467, 339, 75, -145, 240, 120, -88, -111, 245, 270, -28, 5, -44, -263, -70, -338, -87, -177, 3, 3, 165, 132, 233, -177, -31, 45, 183, 494, -297, 353, 124, -85, 102, 129, -98, 110, 145, -431, -396, -260, -107, -311, -48, -106, -128, -68, -459, -333, -77, -51, -142, -290, -14, 56, -40, 139, 363, 152, -87, -259, -192, -550, -405, -515, -356, 47, -116, 163, 187, 171, 186, -83, -370, -1075, 501, -43, -84, 461, -213, -110, -149, -661, -171, -152, -220, -184, 20, 146, 102, 217, -298, 28, 258, 388, -713, -414, -205, -81, 161, -228, 362, 507, 16, 467, 170, 702, 131, -132, -126, -177, -260, -449, -9, 60, -644, 65, -126, -82, 177, 523, -244, 374, -189, -555, 277, -120, -246, 428, 274, -212, 406, 94, 103, 254, -9, -189, -451, 72, -438, 58, -46, -686, 285, 199, -233, -454, 50, 295, 91, 350, 46, -75, -238, -303, 204, 487, 497, -293, 203, 879, -327, -847, 329, 104, 139, -275, 334, -84, 360, 252, 144, 238, 198, 50, 191, -164, -536, -262, -696, -703, 369, 243, 196, -196, 57, 342, -370, -198, -97, -366, 272, 178, 207, 105, 411, -148, -246, -549, 182, 84, 384, -42, -27, 427, 0, -120, 173, 73, 110, -156, 489, 62, 132, -109, -293, -90, -325, 86, -29, -189, 532, 176, 147, 617, -197, 245, -27, 680, -3, -70, -175, 156, -78, -311, 80, -458, 520, -140, 128, -235, 204, -47, -217, 262, -177, 368, 419, 333, 238, 741, -322, -728, -188, -187, 357, 109, -36, 170, -41, 110, 198, 98, 287, 254, 38, 677, 179, -59, 312, 526, 146, -90, -154, -1, -19, -68, -18, -239, 193, -222, -400, 622, 92, -202, 110, -184, -355, 63, -312, -689, 243, 449, -423, 225, -363, 78, 269, 163, 207, 347, -57, 171, 324, 269, 102, -1, 183, 296, 292, -255, -217, 32, -148, -195, -221, -102, -578, -30, -223, -755, -131, 58, 0, 60, -132, -91, -2, 109, -130, 302, 37, -262, 38, 6, 11, 117, -121, -93, -94, -20, 94, 168, 18, -288, -243, -310, -86, -360, -258, 366, -41, -217, 118, 185, 73, 122, -174, -201, -155, 193, -74, -346, -63, -332, -142, 211, -106, 147, -9, -97, -372, -403, -395, -806, 151, -543, -428, -336, 268, -1077, -455, -911, -1, -278, -17, -45, 53, 225, -186, -78, -258, -30, -122, -316, -18, -48, -250, -335, 87, -25, 94, 276, 42, 237, 433, -125, -73, -240, -231, 256, -90, 266, 189, -36, -245, -46, -81, 41, -343, -268, 217, 106, -188, 39, -74, -186, -332, -180, -126, -312, -76, -81, -52, 62, 329, 432, -701, -72, -287, -371, -32, -505, -513, -295, -480, -60, 225, -601, 45, 49, 54, -269, -179, -113, -289, -440, -15, 58, -352, 178, -632, -95, -636, -314, 131, -27, 107, -263, -477, -189, -282, -760, -432, 71, -299, 46, 210, -212, 364, 317, 217, 74, 317, 73, -330, -100, -109, -33, -171, -59, -100, 276, 32, 151, 273, 430, 24, 283, -20, 337, 9, -226, 48, 112, 0, 236, -54, 16, 83, -203, 370, 206, -296, 439, 122, 238, 145, 297, 17, 228, 349, 16, 664, -237, -527, -42, 30, -283, 428, 63, 301, 165, 455, 122, 443, 261, 130, -28, 336, 503, 297, 38, -70, 131, 8, -17, -16, -117, -328, -186, 200, 234, -72, -597, 8, 55, -353, -451, -249, 61, 261, 204, -194, 36, 51, 516, 421, 166, -209, -171, 107, 55, -207, -117, 158, -9, 180, 290, 266, -82, 397, 284, 47, 289, 270, 531, -37, 85, 60, -29, 271, -214, 298, 129, -76, 41, -162, 287, 2, 121, 269, 26, 61, 42, -352, 322, -30, 99, 24, 226, 533, 426, 383, 363, 308, -143, 437, 143, -18, -7, 117, 141, 168, 38, -136, -47, 278, 253, -171, 156, -51, 319, -31, 182, -28, 28, -174, 299, 57, 186, -116, 139, 540, 134, 84, 177, 351, 125, 39, 497, -29, 178, 388, -210, -354, 362, 1, -219, 75, 270, 80, -92, 197, 511, -363, -145, 470, 389, -167, -159, 283, -209, -100, 204, -336, -106, 575, 121, 61, -40, 301, -9, 481, 319, 58, -23, -59, 169, 134, -82, 294, -85, -103, 222, 418, 76, -9, 229, -203, 112, -527, -301, -124, -76, -91, 128, -108, 115, -45, 135, 110, 435, -250, -230, 145, -161, -458, -176, 29, 20, 165, 177, -193, -367, 325, -62, -229, 66, -351, -80, 160, 51, -25, -337, -184, -51, 4, -126, 227, -79, -161, -97, -143, 254, -204, 141, -67, -10, -167, -83, 180, 15, -383, 72, 42, 29, 98, 248, -87, 171, 160, 64, 254, -233, 77, -77, -479, 0, 440, -397, -166, 336, -691, -68, 460, -99, 61, -98, 219, 290, 214, -108, -98, -58, -560, -238, -222, 93, -101, -220, -134, -333, 51, 277, 97, 185, 243, 38, 32, -105, -127, -85, -36, -287, 239, -493, 59, -120, -185, -70, -42, -141, -375, -35, 131, 12, -61, -115, -55, 315, 133, -314, -135, -37, -182, 134, -344, -129, -53, 38, -126, 11, -146, 0, -159, 236, 241, 205, 88, -159, -23, -5, 83, -154, 236, 69, 259, 13, -69, -28, 245, 214, 273, 117, 233, 4, -179, -102, 21, -43, -113, -7, 145, 172, 13, -214, -310, -226, 27, -318, -91, 163, -288, -45, 134, 311, -52, -64, 14, -511, 196, 300, 342, -567, -188, 110, -130, -226, -117, 81, -453, -237, -451, -286, 488, -66, 77, 384, -635, -407, -2, 278, 589, 185, -73, 93, 230, -106, 456, 34, 400, 293, 83, 197, 127, 129, 105, 166, 11, -312, -241, 325, -326, 94, 27, 95, -430, -134, 878, -465, -375, 236, -47, -65, 413, 205, 156, 468, 26, -200, -12, -472, 154, 637, -665, -339, -444, 280, -294, -354, -357, -7, 65, -241, -137, -521, 162, -6, -263, 109, 192, 120, 352, 313, 50, 51, 252, 178, -108, -126, -48, -142, -92, -622, -164, 132, -162, -182, -211, 190, 138, -460, 89, 396, -68, 85, 255, 244, -105, -106, -59, -105, 8, -1, -553, -244, 366, -65, -378, -547, 264, 307, 82, 147, 205, -153, -156, 237, 73, 319, -95, 432, 183, 129, 281, 141, 29, -55, 382, 202, 548, -235, -236, 119, 220, 270, -208, -74, -145, -100, 105, -285, -357, -69, 140, -37, 6, 399, -66, -231, 265, 153, 312, 377, 578, 42, 7, 23, -395, -217, 213, 114, -133, -101, -360, -196, -249, -332, -119, -3, -80, -161, -439, 38, 227, -132, -560, 193, 71, 38, -407, -122, -101, 52, -66, -547, -81, -177, -54, -322, -351, 523, 189, -109, -189, 287, 164, -118, -110, 469, 139, 5, -452, 598, 579, 110, -167, 41, 750, 325, 253, 40, -102, 270, 501, 197, -198, 465, 16, 252, 257, -266, 206, 238, -87, 156, 448, -520, -248, -105, 194, -30, -305, -152, 141, 216, -153, -98, -223, -236, -171, -355, -740, 39, 34, -210, 80, -3, -63, 125, 146, 265, 280, 167, 160, -79, -142, 155, 164, -24, -336, -151, 138, 310, 595, -430, 26, 34, -207, -487, -32, 93, 354, 175, -121, 79, -21, -259, -265, -101, -225, -322, 102, -107, -94, 23, -285, 218, 163, 43, -86, 398, -332, -203, 344, 148, -540, 179, -176, -230, 454, 322, 206, 520, 209, -174, -157, -377, -176, -411, -201, 597, -59, -222, -126, 321, -224, 161, 485, -211, -317, 408, 41, -284, 124, -82, -80, 314, 171, -557, 89, -374, 115, -11, -278, -347, 8, -532, -798, 39, 152, -74, 90, -505, 670, 376, -257, 648, 517, 78, 193, 430, 590, -192, -65, -109, -150, -84, -286, -471, -425, -429, -160, 228, -675, -180, -385, -157, -19, 65, -130, -703, -619, 90, -114, -219, -81, -384, -266, -260, -26, -156, 72, -74, -2, 268, 22, 0, -330, 38, 116, -396, 228, 438, 414, 121, 129, -27, 172, 169, -133, -312, 270, 451, -10, 210, 39, 140, -506, -280, -87, 172, -75, -466, -64, 378, 239, 462, 433, 155, 224, 5, 460, 335, 250, -6, 154, 327, 7, 134, 490, -140, -426, 213, -237, 193, -580, -252, 159, 130, -406, -204, -263, -263, 91, 122, 6, -113, 43, 7, 297, 32, 109, 80, -24, -192, -111, 90, 430, 161, 142, -548, -134, -284, 10, -305, -65, -93, 302, -78, -226, 150, -27, -260, -87, -33, -289, 491, -311, 47, 302, 777, 0, -196, -505, -437, 258, -381, -3, -478, 73, 603, 393, 62, 236, 227, 272, 24, -305, 260, 344, 43, -196, -74, 133, -160, 39, -744, -226, -216, 270, 399, -12, -21, 277, 75, 224, -307, 27, 233, -139, -47, -394, -353, 479, -233, -214, -21, -442, -267, 149, 218, 53, -30, 158, -79, 200, 7, 425, -302, 177, 409, -87, -64, -443, -57, -24, -50, -127, 68, -69, -346, 97, 330, -316, -18, 258, 76, 8, 120, 16, -156, 518, 280, -779, -300, 226, -106, 40, -203, -248, 398, -253, -530, 213, -339, -437, -41, 682, -442, 319, 156, -56, -13, 139, 246, -84, -524, -126, -479, -20, -93, 73, 118, 365, 314, -402, -503, -660, -696, -142, -52, -151, 15, 109, -209, -174, 397, 247, 376, 367, -102, -346, 78, 134, -247, -104, 117, 309, 211, -418, -200, -167, -457, -238, -118, -328, -238, 177, 229, 158, 37, 158, -432, 130, -174, -559, 11, 144, 95, -23, 367, -137, 236, 54, -337, 321, 146, -1, 338, 320, -36, 0, -194, -16, 492, -58, 254, 274, 35, 47, -107, -61, -32, 402, -496, -83, -429, -807, -635, -320, -188, 210, 792, -74, 39, 337, -82, 61, -260, -187, -232, 60, 192, -392, -482, -41, -106, -769, -108, 117, -425, 1, 290, -24, -86, 5, -218, -216, -590, -364, -203, 262, -33, -120, -353, -358, 240, 56, 149, 217, 84, -187, 178, 655, 469, 410, 9, 441, -292, 67, -1103, 291, 570, -170, -289, 361, -57, 45, 32, 411, 316, 143, 301, 102, 145, 695, -366, 391, -18, 174, 234, -317, 23, 173, -136, 75, -559, -208, -258, -336, -186, 15, -62, 123, -58, -31, -293, 469, -143, 49, -559, -105, -565, -12, -231, -245, -286, 200, -490, -815, -262, -15, 31, -11, 71, -215, -673, -927, 12, -153, -814, -752, -596, -518, -479, -89, -247, -91, -413, 21, -4, -62, -59, -279, -79, -661, -292, -268, -256, 113, -196, -612, 211, -286, 179, 307, -253, 149, -185, 388, -91, -70, 262, -4, 278, 37, 375, 325, -133, -109, 356, -327, 2, -417, -26, -425, 200, 594, -387, -213, -377, -30, -40, -431, -364, 268, 224, 245, 284, 213, 28, -62, 122, -225, 100, 10, -197, -262, -69, -709, -170, -860, -84, -449, -333, -787, 7, 464, 277, 441, 492, 599, 344, 713, -132, 401, 245, 331, -5, 181, -98, 128, 153, -32, -700, -312, 166, -281, 231, -182, 85, 262, -478, -224, 102, 697, 668, 615, 739, 211, 115, -118, -335, -265, -357, -300, -224, -248, 307, 191, 181, 164, 173, 267, -130, -148, 237, -219, -236, -383, 30, -114, 293, 450, 98, 88, -60, -403, -201, -36, -234, 20, -240, -301, -616, 243, 22, -95, -96, 46, -125, -141, 218, -191, 81, 384, -12, -82, 59, 127, -161, -28, 59, -65, -385, -324, 26, 42, -128, -6, 272, 227, -154, 44, 204, 41, 190, -135, 59, 62, 58, -17, 109, 104, 58, 162, -308, 103, 41, -122, -33, 75, 5, 71, 212, -151, 203, -41, 109, -207, 25, 253, -130, -96, 282, 201, -80, 9, -184, -537, -558, 364, -271, -80, -444, -158, -72, -118, -394, -19, 8, 326, 179, -152, 234, -156, -27, 104, -120, 68, -12, -46, -9, -157, 130, -157, 403, -46, -305, -193, -5, -188, 37, -102, 97, 164, -127, -308, -84, -371, -12, -228, -183, 89, 254, -93, 151, 151, -388, -88, -126, -208, 161, 509, 66, 110, -183, -375, 117, -64, -293, 408, 413, -138, -208, 236, 147, -119, 28, 130, -147, 23, -229, 49, -24, -115, 71, -227, -448, -89, 15, 80, -79, 183, 128, -74, 62, 82, -149, 392, -53, 272, 22, 156, -262, -116, -21, -41, 66, 98, -254, 305, 245, -148, 142, 53, -169, -64, -215, -268, 6, 104, -122, -13, 145, -1069, -172, -394, 368, 86, 375, -144, -338, -585, -79, 43, -231, 117, -93, -252, -27, -81, 275, -160, 38, -235, -201, 198, 285, -471, -272, -433, -58, 114, 147, -600, -467, 170, -252, -125, -208, -287, -234, -428, 48, 75, 252, -3, 53, 25, -74, -30, -370, 11, 65, -35, 216, -189, -448, 254, 41, 48, 32, 395, 299, 116, 73, -547, -55, -90, 80, -37, 294, 124, -27, 448, 336, -231, -144, -176, -72, -5, 418, -515, -488, -842, 566, 364, 303, 118, -108, -178, -171, 51, -94, -176, -472, -307, 404, -38, -96, -336, -498, -841, 590, 423, -254, 378, 24, 200, 447, -40, -409, 503, 149, -287, 23, -288, -865, 376, 161, -44, 493, -7, -18, 148, -200, -314, -430, -95, -618, -33, 223, -226, 133, 104, 23, -34, -196, 29, -81, 213, -438, 257, 135, 420, 98, 94, -155, 160, 295, -73, -168, -408, 503, -789, -545, 66, -92, -56, 135, 284, 289, 431, -273, -352, -658, 586, 260, 44, -125, 254, 10, -43, 463, -117, 160, -91, -238, 2, 4, -248, 544, 368, 113, -294, -356, -204, 136, -127, 144, 505, 420, -684, 38, -42, -520, -13, 264, -42, -183, -159, -214, 309, 81, 279, 291, 345, 28, 221, 306, 386, 15, -77, -341, -148, 236, -159, -383, 76, -116, -101, -161, -187, -34, -29, 129, -232, 21, 133, 30, 75, -255, 328, 20, -405, -181, -403, -841, 237, 71, -277, 480, 175, -764, 482, -370, -764, 781, -348, -56, -220, -586, -539, 299, -255, 319, 213, 40, -179, -355, -601, -178, -309, -589, -540, -366, -590, -425, 239, -18, -503, 273, -137, 163, 283, -127, 61, 201, 352, 87, 80, -292, -203, 147, -133, 329, -102, 41, 134, -707, -764, -231, 291, -85, 161, 67, -266, -249, 254, 101, 241, 8, 186, 110, -9, 3, 154, -79, -280, -132, 77, 123, -223, 471, 272, 44, 421, 2, 174, 312, 185, -77, -275, -84, -18, 17, -440, 197, -21, -14, 81, 396, -240, 312, 242, -117, 136, -76, -70, 281, 101, -332, -211, 55, -53, 365, -12, -74, 127, -37, 226, 64, 155, -20, 172, 102, 121, 380, 71, -45, 84, -93, 50, 60, -198, 77, -285, -210, -389, -548, -162, -73, -5, -184, -213, -189, 78, -279, -185, 34, 129, 107, -131, -22, 98, 152, -64, -151, -292, -448, -303, 167, -158, 66, -148, -267, 282, 165, -191, 265, -540, 130, 215, -12, -277, -117, -31, -115, 118, -515, -91, 225, 48, -378, -543, -37, -419, -202, 345, -59, -223, 27, -324, -110, 192, 43, -336, 22, 215, -47, 160, 123, 395, -126, -96, 207, -29, -254, -115, -120, 259, -136, -487, -415, -572, -149, -112, -485, 17, -496, -42, -176, -20, -309, -309, -108, 47, 196, -81, -5, 99, 248, -76, -143, 258, 275, -836, -56, -257, -378, 55, 180, 141, -74, -265, -14, 318, -143, 111, 428, 23, 99, 96, 303, -56, -208, -46, 277, 212, -243, -13, 137, 329, 391, 233, 18, -7, -40, -27, 279, 312, -2, -70, -175, -430, 91, 115, -49, 668, 420, 93, -127, 62, -3, -290, 35, 73, 392, -142, 298, 183, -288, -125, -32, -317, 143, 259, 237, 71, -51, -152, -120, -17, -235, -54, -50, 104, 79, -214, 329, -598, -251, 63, -420, 84, 178, 416, -438, -317, -21, 106, -389, 1, 343, -350, -151, 217, 257, 111, -72, 128, -114, -102, -310, 379, 132, 136, 204, -433, -359, -286, 95, -382, -606, 128, 25, -81, 61, -356, -410, 10, -453, -419, 193, 17, 324, 247, -471, -176, 24, -93, 79, -15, -62, 283, -110, -61, -70, -99, -100, 28, -176, -394, -4, -411, 27, -463, 195, -55, -255, -111, -373, -361, -53, -248, 80, -285, 33, -81, -58, -54, 564, 310, -29, -133, 80, 189, 440, 66, -72, 511, 143, 308, 45, -18, 23, 77, 52, -265, -288, -99, -173, -165, -411, -434, -209, 316, 573, 643, 32, -310, -123, 77, -292, -298, -103, -269, -105, -90, -302, -227, -88, -447, -166, 444, 213, -150, -158, -148, -91, 188, 33, -98, -441, -60, -94, -57, 23, -148, 206, -429, -135, -189, -298, -393, -408, -535, -335, 356, 380, 200, 289, 231, 130, 220, 310, 134, 291, 118, 527, 365, 378, -300, 331, 21, -79, 291, -83, -44, -369, -64, 26, 64, 442, -46, 196, -126, -166, 265, -175, -181, -6, -434, 84, 54, -158, 256, -98, 225, -189, 283, -93, 263, -101, -174, 114, 127, -121, -205, -59, 180, -162, 10, 126, 281, 5, 269, -156, 173, 408, -284, 502, -141, -282, -159, -371, -836, -444, 197, -271, -8, 24, -337, 621, 234, -303, 120, 160, -110, 224, -139, -301, 323, 124, -65, 713, 338, 13, 292, 232, 148, 292, -245, -11, -600, -424, -460, 388, -19, -230, 223, 38, 216, -50, -332, -56, 24, -3, -23, -43, -207, -276, 129, 186, 26, -170, -30, 405, -51, -8, -393, 201, 36, 64, -167, -257, 235, 358, 166, -425, 70, -51, -446, 312, -29, -49, 55, -8, -283, -191, -197, -239, 31, 137, -166, 39, -78, -115, 216, 483, 230, 166, 38, 96, -52, 101, -439, 394, -106, -375, 152, -166, 252, -353, 81, -166, 15, -241, -391, 357, -340, -175, 612, 456, 434, -425, -117, 39, -306, 23, -163, -678, -910, -1310, -31, -161, -400, 107, 162, 339, 524, -259, 143, -305, -70, -509, -188, -181, -441, -237, -198, -16, 61, -42, -167, 118, -179, -2, -480, -354, -548, -290, 30, -180, -18, 325, 112, -95, -12, 32, -170, 96, 67, 42, 100, 371, 459, -217, 203, 68, -246, -93, -24, 170, 259, 334, 71, 126, 87, -66, 170, 365, -257, -105, 83, -63, -187, -350, -531, -297, 20, -245, 71, 261, -125, 64, 159, 1, -211, 405, -329, 227, -23, 10, 217, -87, -209, -20, 2, 111, 190, 126, -180, -294, 261, -219, -489, 286, -110, -99, 194, 220, 380, 71, 149, -804, -216, -206, 64, 789, 515, 792, 214, -370, -102, 575, 174, 300, -514, -350, -203, -394, -292, -26, -159, -44, 164, -767, -635, -485, -744, -139, -360, 204, 207, 238, -472, -475, -732, -208, -272, -843, 427, 192, -173, -105, -151, 285, -77, -136, 164, 81, -130, 296, -125, 37, 142, 46, 20, -39, 169, -126, -154, 91, -89, 6, -320, -176, -659, -105, -323, -334, 165, 67, 167, 43, -30, -646, 140, -25, -26, -134, -248, -503, -275, -104, -78, 197, 251, -116, -493, -464, -317, -48, -221, 89, -28, 43, 314, -45, -101, -206, 205, -17, -16, -120, 10, -88, -280, 256, -118, -363, 396, 2, -161, 397, 373, 480, 264, -234, 330, -63, -191, -311, -36, -416, -386, -528, 328, 165, -498, 447, -251, -53, 69, 311, -309, 422, -15, 368, -136, -279, 248, 72, 515, -385, -150, 307, -342, -402, 486, 260, -26, -369, 151, -341, -244, 29, -79, -151, 374, 256, 100, -287, 604, 123, -127, 555, 11, 161, 96, -627, -361, -263, -318, -482, 58, 156, -329, -189, -451, -325, -652, 55, -210, -552, -265, -69, -43, 548, 404, 250, 626, -291, -638, -13, 236, -258, -34, 369, -210, -145, -151, -65, 225, 182, -422, -85, -169, 124, -199, 12, 209, 47, -74, -895, 41, 84, 193, 413, 386, 241, 651, 62, 156, -154, -287, -335, 197, -192, -121, 424, 54, -645, -88, -371, -87, -229, -40, 25, -9, 152, 268, 334, -253, -76, 540, -126, -364, 90, 78, 54, 464, -248, -236, 64, 158, -219, -5, 418, -760, 479, -154, 216, 366, 56, 240, -629, 160, -147, 774, 50, 280, 648, -127, 67, 169, 465, -863, -200, 47, 645, -140, 13, 689, 35, 213, 225, 398, 22, -10, 192, 62, -570, -551, -101, -26, -260, 167, 379, 327, 201, 260, -295, 466, 235, -343, -372, 425, -188, -86, 549, 106, -56, -215, 431, 136, -472, 334, -146, -402, -244, -435, -601, -193, -28, -184, 273, -416, -722, 914, -79, -275, 25, -113, -161, 51, 46, -48, 202, 105, -1, 123, -41, 354, -70, -25, 214, -229, -12, 298, -216, -441, 92, 355, -154, -111, 105, -162, -345, -87, -268, -99, 41, -359, -458, 268, 203, -230, 33, 207, 312, -64, 68, -86, 5, -304, 74, 270, 16, 253, 190, 85, 180, -281, 174, 252, -60, 116, 222, -186, 363, 45, 62, 140, -94, 165, 234, 91, -22, 490, -363, -142, -109, -259, 55, -226, 65, 198, 32, -247, 72, -214, -60, 79, 59, 439, 46, -147, 408, -152, 100, 383, -91, -38, -134, -149, -172, 371, -518, -224, -33, -5, -320, 349, 33, 66, -132, 237, -215, -89, 196, -38, 372, 27, 100, 296, -333, 96, 435, 157, 193, 81, 264, 49, 48, -795, -215, -201, 325, -124, -106, 217, -156, -85, -53, -22, -93, 99, 19, 195, 8, -29, -151, 189, 196, 133, 141, -83, -119, -29, 51, -551, 303, -512, -272, 34, 23, -58, 348, -24, -171, 293, -68, -172, 124, 203, 711, 23, 101, 516, -7, 105, -46, -125, 145, -3, 257, -163, -82, 2, -53, -343, -170, 181, 390, 273, 232, 0, 362, -1, -84, 250, -228, 223, -288, 180, 147, -263, 112, 11, -23, 241, 161, -204, 137, 262, -87, 251, -283, 292, 280, 243, -32, 321, 314, 220, -9, -64, -250, -163, -187, 144, -139, -265, -292, 407, -74, 833, 450, 49, -56, -75, -172, -88, -152, -642, -90, 46, -107, -445, 60, -480, -466, 221, 3, 109, 202, -164, -114, -11, -304, -23, 372, 9, -204, -10, -223, -143, -117, -226, -189, -286, -103, 270, 345, -48, -90, 225, -458, 273, 536, -992, -48, -230, 463, 336, 191, -29, -140, -290, 6, 204, 182, 319, -46, 56, -15, -75, 102, 100, -32, 27, 9, 221, 150, -57, 133, -46, 242, -5, -18, -3, 101, 166, -246, 263, -29, -29, 206, -5, -102, -135, -392, -976, 132, 383, -277, 49, 185, 237, 411, -237, 252, -82, 119, -146, 468, 107, -319, 462, 252, -503, 264, 201, -671, 23, 295, 259, -337, 40, 23, -117, 278, -377, 74, -118, -187, -52, -155, -466, -279, -68, -228, -92, -173, -32, 184, -243, 75, 226, -200, 140, -71, -315, 71, 37, 63, 227, 25, -329, 315, -43, -244, -213, 103, -211, 123, 225, 28, -30, 394, 296, 43, -201, -91, -337, -32, 28, -700, 275, 394, 229, 47, 277, 20, 164, 444, 323, -328, -241, -94, -65, -249, -287, -290, -153, -152, -29, 121, -42, 78, 116, -664, -28, 266, -964, -168, -173, 13, 132, 250, 302, 286, 67, -390, 474, 89, -80, -232, -727, -797, -237, 57, -113, 167, 49, -58, 248, 283, 329, 90, 58, 15, 254, 305, -88, -116, 161, 247, 88, 147, 221, -252, 22, -227, -305, 441, -373, -4, 374, 300, -203, 220, -69, 364, 233, -55, -146, 359, 194, -298, -241, -56, -259, -48, 76, -139, -164, 113, 237, 413, 292, -583, 73, 65, 142, 253, 62, -341, 42, 196, -236, 109, 300, -237, -82, 41, -324, -25, -419, -314, -30, 145, -7, 184, 295, 53, -195, -203, -220, -126, -295, 81, 280, 72, -471, -323, 282, -461, -130, 220, -202, -41, 639, 71, 117, -274, -281, 120, -130, 127, -156, -733, -555, -149, -523, -523, -278, -785, -222, -547, -296, -60, 222, -55, -23, 57, 121, 63, 293, -130, -167, -226, -139, -514, -72, 330, -45, -30, 164, 286, 251, -191, 297, 495, 46, -133, -227, -265, -204, -139, -124, 215, 361, 420, -113, -203, 247, -214, -173, -108, -336, 29, -45, -121, 5, 300, -4, -162, -461, -553, -69, -200, -128, 185, 192, 308, 149, -315, -630, -124, 24, -187, -1, 9, -434, -487, -203, -29, -320, -628, 506, 213, 73, -573, -646, -10, -472, -210, 350, -705, 26, -166, 115, -98, -59, -889, 203, 234, -453, 54, -141, -419, 172, 58, 422, 538, 499, -144, -524, 105, -271, -181, 84, -441, 161, 294, -443, -142, 216, 184, 109, -74, -460, -167, -287, -6, -323, -261, 60, -12, -351, -115, -492, -192, -204, -183, -2, 186, -185, 20, 92, -278, -602, 517, -348, -103, 13, -232, -534, 125, -418, -264, -423, -604, -192, 36, -385, -249, 329, 295, -130, -527, -178, -297, 192, -40, -111, 84, 26, -133, 85, 369, -98, 253, 224, 110, 348, 207, 78, -32, 266, 136, 362, 88, 706, 751, 225, 329, 179, -99, 160, -278, -44, -265, 83, -100, -234, -367, -275, -299, 354, 298, 141, 321, 336, 678, 182, 3, 139, 275, -23, 1, -90, 42, -222, -93, -251, -300, -97, -162, -376, -470, -448, 50, 390, -102, -169, 178, -133, -36, -441, -148, -200, 136, 134, -297, 366, 38, 438, -112, -203, -36, -26, 103, 41, 81, 289, -85, -295, -217, -199, 388, -227, 93, 183, 80, -398, -206, 112, -282, -470, -435, -204, -107, -127, 354, -179, -276, -196, 52, -70, 55, 225, 373, -134, -201, -77, 54, -286, -265, -463, 246, -24, -563, -22, 87, -222, -66, 89, 236, -294, -427, -283, 65, -119, -23, -47, 46, -131, -1, -195, -561, 424, -133, 342, 139, -482, 13, -9, -482, -539, -339, 129, -389, -137, 40, -92, 241, -35, 81, 489, 315, 450, 131, 573, 607, 116, 275, 0, -575, -511, -530, -64, 144, 93, 77, 25, -47, -647, -115, -379, -319, -249, 215, 25, 216, 120, -366, -110, -186, 154, -40, 31, 419, 353, 277, 55, -135, 15, 234, 187, -156, -735, -371, -92, -421, -501, -176, -143, -262, -178, -194, -312, 209, 109, -110, -95, -80, 124, 21, 162, 27, 337, -204, -215, -204, -452, -561, -234, 752, 194, 633, 459, 150, 451, 85, 117, 416, 376, 274, 288, 4, 163, 323, 37, 97, 207, -33, -269, 273, -225, -247, 109, -496, -334, -292, 167, -392, -105, 452, 56, -74, -84, 58, -70, 188, -69, 272, -388, -377, -660, -145, -302, -248, 377, -132, 138, -34, 196, -34, 175, 40, -260, -161, 249, 322, -148, 218, 303, -359, -402, -189, 143, 140, 332, 200, -48, 313, -84, -271, -55, 77, -14, 196, -527, -438, -58, -57, 129, -186, 64, 116, 415, -508, -201, 106, 190, -303, -60, 225, -90, 246, -273, 277, 163, -413, -5, 36, 149, -99, 123, -191, -64, 48, -472, -378, -63, 123, -50, 441, -95, 166, 171, -414, 206, 529, -257, -195, 47, 198, -368, -268, 411, 172, 414, 135, -15, 37, 254, 3, 122, -34, 101, -154, -85, 6, 243, 95, -210, -47, -269, -494, -537, 345, -8, -65, -47, 9, -157, 29, -54, -43, 350, 107, 524, -369, -351, -100, 23, -51, 306, -134, 312, -3, -235, -193, -319, -35, 3, 9, -355, -509, -57, -418, -62, 230, 259, -51, -9, 144, -550, -273, -306, 47, 64, -184, 98, 27, -66, 197, 104, 240, 182, 326, -387, -364, 138, 931, 1046, -141, 645, 895, -323, 73, -223, -62, -554, -233, -51, -171, -846, -219, -652, -498, -343, 144, -95, -268, 237, -339, 535, -34, -278, -199, -116, -93, 118, 261, 140, -158, -90, -188, 156, -258, -189, -404, -190, -54, 365, 684, -29, 66, 301, 170, -282, 595, 784, 321, -52, 41, -259, 128, 234, 267, 406, -107, -374, -495, 132, 30, -362, -376, -117, -474, 263, -94, -193, -293, -189, -195, 71, 492, -48, 281, 432, 124, -52, 233, 309, 206, 139, 620, 687, 563, -127, 96, -151, 106, -274, -261, -306, -119, -320, 199, 15, -504, -261, -133, -58, 179, -219, -37, -75, 272, -114, -399, -475, -710, -283, -459, -91, -214, -262, 110, -343, -133, 285, -49, -428, -2, -16, 86, 198, -484, -410, -576, 153, -327, -267, -286, -80, 48, -392, -14, -214, 129, 361, -91, 166, 347, 125, -549, -263, 219, 695, 75, -399, -615, -516, -229, 72, 126, 382, 244, 70, -13, -244, -675, -63, -147, -714, -754, 88, 188, -35, 142, 352, 73, 104, 365, 641, 488, 77, 66, 70, 130, 125, -627, -461, 75, -50, -222, -285, 152, 40, -481, 124, -345, -54, 440, 322, -58, -29, 256, 200, 182, -321, 100, 539, 219, 296, 586, 211, -164, 166, 279, 268, 276, 63, 310, 347, 238, 341, 360, 182, 547, -122, -38, 278, -51, 106, -240, 174, 23, -335, 196, 353, -78, 154, 158, 212, 19, -160, -82, 368, -101, -144, 530, 418, 221, -309, -491, -264, -284, -487, -271, -39, -246, -31, -63, -172, -201, 290, -125, -316, 53, -175, -599, -228, 107, 433, -101, -105, 271, -128, -87, 69, 279, 14, -233, 258, 476, 126, -129, -172, 210, 38, -70, -29, 265, -200, 18, 461, -114, -191, -141, -408, -221, 174, -47, -589, 238, 59, 248, -192, -97, 191, -150, -65, -125, -307, -48, -54, -132, 9, -114, -65, 241, -7, -69, 38, -20, -599, -238, -173, -204, 167, -143, 103, 216, -413, 198, -314, 120, -4, -47, 212, -26, -194, 173, 114, -52, 245, 175, -385, -16, 225, 68, -183, 108, -493, -66, -85, -105, -201, -221, 186, -62, 61, 179, 46, 161, -117, -127, -63, 116, 40, -150, 144, 295, 123, -172, -228, -43, -73, -129, -126, -390, -398, -276, 142, -244, 143, -40, -213, -12, 192, 12, -241, -113, 145, -290, -259, -540, -128, 344, -155, -440, -170, 116, -392, -37, -103, 286, -129, 326, -6, -11, 287, -49, 0, -121, 13, -480, -64, 255, 39, 79, -81, -68, -82, 482, -330, -407, 65, -22, 31, 84, -175, 181, 205, 516, 355, -464, -234, -187, 78, 84, -146, -476, -3, 110, -436, -288, -221, -104, 30, 349, 185, 43, 229, 137, 35, -47, -302, -153, -350, -352, -523, -318, 12, -19, 87, 185, 12, -146, 187, -169, -5, 318, 240, 286, -104, 50, -262, -79, -236, -430, 523, 283, 35, -74, 110, -80, -40, -273, -265, -503, -423, -427, -412, -360, -293, 208, -161, 105, -485, -492, -739, -111, -117, 223, 58, -11, 214, 286, -286, -150, -29, -216, 38, 203, 122, 127, 548, 710, 367, -273, 108, -62, 165, -113, 114, -434, -839, -536, -348, 188, 362, 54, -522, -142, 392, -127, 337, 216, 29, 65, 27, 164, 220, 80, -74, 226, 45, 254, -8, 387, 251, 487, 60, -44, -162, -45, 325, 69, -287, -59, -206, 531, -228, 195, 49, 93, 259, -214, -253, -54, 21, 77, -19, -110, -103, -425, 30, -4, 95, -225, 224, 312, -218, -199, -241, -52, -347, 562, -103, -148, 12, 240, -383, -103, -44, -30, 432, 4, -18, -239, -261, -592, -305, -423, -717, -437, -192, -505, -538, 238, 9, 212, -494, -114, 53, 17, 148, 202, 307, 344, -44, 34, 189, -58, 184, 19, 54, 115, 351, 40, -168, -174, 232, -188, -192, -424, -187, -155, -571, -343, 376, -199, -281, -196, -289, -488, -146, 420, 155, 256, 287, -442, -164, -639, 179, 386, 342, 223, -23, 104, -2, -102, -147, 385, 139, -133, -254, -333, 54, 82, 146, -158, 339, 98, 148, -391, -79, -168, 204, 357, -49, 282, -189, -56, -181, 244, 120, -288, -124, 481, -159, -231, 136, -283, -205, -285, 119, 137, 162, -190, -162, 98, 562, 321, 100, 59, 171, 37, -250, -175, 24, -443, -374, -214, -303, -226, -357, 168, 235, -10, -754, 243, 2, 152, -172, -424, -14, -26, -31, -53, -157, 174, 287, 211, 328, 23, -239, -276, -465, -369, -228, 129, -269, -251, -411, 72, -141, -222, 12, 247, -66, -200, 139, 33, -88, -507, -125, 234, -221, 36, 38, -106, 341, -90, -208, -340, -39, 214, -208, -78, -25, -96, 225, 349, -287, -305, -147, 231, -120, 117, -203, -50, 269, -224, -204, -246, -266, -432, -536, 209, -231, -371, -24, 158, 162, -16, 367, 461, -63, -136, 179, 242, 93, -29, -142, -171, 163, -35, -367, 414, -358, -480, -472, 152, -349, -398, 2, 47, -138, -243, 40, 224, -208, 8, -436, 126, 166, -233, -331, 138, -141, 253, 258, 225, -148, -119, -172, -26, -234, -225, -270, -237, -111, -133, -345, -345, 198, 230, -314, -256, 213, 394, 217, 180, 108, 240, 335, 60, 361, 425, -342, 685, 51, -171, -126, 223, -84, 407, -206, 294, 536, -116, 437, -40, -142, -489, -680, -218, -112, -442, -66, 60, 528, 699, 507, 668, 619, 238, 526, 265, 87, -192, 20, 42, -250, -149, 322, 406, -38, 363, -356, -17, -38, -509, -86, -155, -315, -385, -111, -81, -167, -36, 143, -233, 289, 408, -444, 234, 200, -216, -160, -397, -442, -232, -575, -149, -13, 151, 755, 436, 230, 495, 504, -116, -146, -117, -321, -256, 341, -445, 76, -154, -268, 552, -163, -70, 441, -10, 3, 18, -462, 583, 124, 92, 129, -394, 341, -304, -463, -182, -338, -537, -180, -198, 6, -31, -230, 237, 35, -299, -63, 197, 546, 282, -214, 163, -20, 3, -121, -132, 17, -211, 112, -47, 97, -67, -28, 134, -80, 139, 360, -173, 7, 80, -89, -47, -123, -414, -164, 261, 260, -218, -76, 414, 11, 339, 73, 135, -529, -781, -99, -710, -747, 131, -109, -167, 141, -319, -161, -53, -199, -58, 591, 361, 184, 9, 189, 340, 369, 290, 143, 58, 94, -233, -56, 198, -429, -518, 241, 37, 6, 296, 87, -3, 198, 220, -518, -631, 191, -11, -273, 154, 344, -60, -284, -269, -61, 127, -122, 208, -92, 222, -395, 38, -280, 194, -139, -63, 26, -212, -198, -139, 139, -3, -41, -227, -120, 321, -590, -224, 200, 164, 322, 64, 102, -253, 456, -67, -924, -44, -105, 10, -457, -345, -575, -48, -63, -317, 16, -120, -366, 597, 238, -20, 26, 102, 3, 331, -218, 275, 47, -144, -257, 94, -30, 364, 421, 282, 143, 323, 134, 402, 74, -187, 283, 187, -280, -219, 524, 204, 226, -55, -286, -111, -135, 201, -238, -372, 107, -260, -4, -240, 82, -130, 283, -233, 166, 248, -314, 138, -32, -289, 134, 4, -504, 160, -203, -386, 445, 231, 242, -341, -252, -425, 205, 349, 390, 171, 60, 404, 148, -350, -578, 294, -419, -465, -22, 2, 25, -320, -248, -443, -625, -572, -720, 164, 118, -271, 27, 129, 168, -99, -173, -67, -12, -349, 147, -276, -98, -272, 327, 461, -54, -147, -116, -238, 37, -379, -425, 187, -189, 126, -162, -303, -206, -166, 81, -519, 486, 195, -195, 70, -70, -107, -464, -205, 65, 145, 53, -344, 60, 215, -300, 372, 422, -34, 87, 50, -209, 121, -374, -109, 141, 178, -145, 218, -169, -69, 106, -213, 210, 219, 277, 185, 20, -61, -234, -57, -372, 30, 97, -871, -79, -264, -178, -197, 201, 136, 193, 165, -24, 152, -13, -47, 177, 175, -986, -755, 326, 537, 132, 51, 190, -170, -565, 91, -75, -135, 194, 190, -94, -125, -81, -117, -197, 109, 60, -146, 336, -186, -93, -348, 293, 315, 5, -65, 203, 47, -20, -6, -91, 431, 130, -296, 305, 227, 126, 168, 24, 285, 342, 369, 222, -111, 17, -101, 225, -9, 246, 109, 405, -166, 47, -81, -336, -205, -38, -338, -12, -204, -667, 23, -110, -293, 480, 436, 313, 31, 20, -186, 335, 103, -287, 4, -259, -643, 136, 72, -269, 162, 202, -46, -526, 448, 706, -26, 274, 212, -126, -246, 50, 94, 156, -290, 679, 77, 60, -291, -281, -533, -469, 97, 242, -291, -324, 365, -217, 172, 31, 28, 220, 392, 13, -42, -110, 96, 107, 251, 48, 353, -264, 472, -416, -299, -7, 372, 386, -138, -172, -289, -11, -312, -271, 43, 161, -355, 82, 430, -58, 64, -346, -456, -101, 121, 16, 161, 468, 196, -270, -221, -53, 538, 407, 112, 113, 0, 344, -93, -163, 68, 50, -393, 3, -477, -546, -442, 335, -305, -379, 130, -53, -891, 203, -98, -445, 523, -46, -100, 195, 228, -170, -142, -93, 217, 201, 185, 250, -200, -266, -14, -473, 38, 13, 85, -145, 565, 427, -132, 325, 451, 237, -99, 155, 120, -171, -300, -231, 127, -458, -112, -908, -192, 384, 40, 149, -129, -18, -27, -252, -93, -72, 26, -17, -17, -338, -192, 17, 15, -250, -267, -249, 102, -157, -218, -62, -224, 324, 486, -45, 208, 551, 417, -189, -72, -98, -42, -335, -298, -166, -452, -337, -59, 39, -153, -189, 154, 414, -118, -51, -399, -94, -418, -96, 75, 185, -178, -110, 180, 501, -150, -124, -106, -184, 215, -159, 63, -424, -436, -165, 377, -173, -66, 28, 250, 60, -599, -137, 99, 68, 160, 260, -213, -9, 254, -137, -295, -196, 0, -354, -126, 9, -77, -213, 7, 241, 47, 29, 129, 287, -24, 170, -287, 311, -392, -115, 57, -219, 137, 219, -455, -149, -262, -148, -188, 130, 111, -217, 3, 146, 373, 48, 128, -98, 242, -154, -385, -302, -133, -93, 325, 19, 78, 196, -538, -387, -876, 180, 97, -360, -268, 56, 449, -452, -401, -197, 269, -381, -514, -477, -122, 185, -441, -86, -491, 7, 158, -85, -368, -310, -12, -27, -199, 21, -245, 9, 16, 549, 384, 392, -135, -272, 11, -526, -126, -120, -214, -416, 101, -612, -355, -495, -664, -122, 93, -250, -100, -59, 259, -348, -61, 450, -374, 38, -515, -209, -200, -239, -49, 237, 7, -384, -165, 296, -58, 221, 16, 83, 129, -325, 28, -15, 1, -17, -24, -132, 354, -48, 265, 267, 222, 229, 55, -283, -164, -225, -562, -192, -69, -335, 564, -156, -610, 246, -17, -272, 393, -5, -115, 43, 174, 161, 48, 59, 28, 206, 512, -75, 743, 763, 385, -268, -273, -290, 119, 53, 143, 81, -164, -510, -74, -212, -691, -62, 59, -496, 142, -198, -528, -11, -305, -120, -46, -555, -84, 122, -154, 110, 79, 417, -178, -150, -234, 133, -288, -457, 497, -187, -260, -275, 158, 159, 318, -301, 68, 61, -543, -561, -414, 108, -97, 181, -128, 99, -295, 489, 643, -15, 101, 126, 11, 67, 640, 220, 249, 290, 159, -435, 283, 304, 26, 5, -595, 162, -240, -404, 119, -325, -595, 384, 290, -540, -27, -40, 49, -17, -103, 367, -193, -203, 276, 476, 168, -49, 153, 77, 104, 73, 27, 282, 66, 294, -57, 320, -59, -116, -424, -530, -278, -695, -279, -533, -276, -2, 85, 261, -281, 140, -424, -21, -68, 101, 361, 135, 8, -394, -17, -191, -248, -666, 137, 46, -463, -320, -19, 288, -342, -523, 34, -114, 147, 99, 800, 478, -414, 176, -99, -362, 484, 46, 337, 130, -129, -519, 19, 465, -397, 64, 255, -135, 302, 203, 181, -187, -24, -264, -401, -182, -269, 21, -67, 317, -271, 131, -93, 38, 31, -262, -290, 101, -284, 161, 339, -211, 173, 354, 589, -164, -32, 236, -252, -92, 109, 292, -82, -249, -88, -322, -217, -65, 129, -21, 94, 30, 32, -365, -134, -372, 106, -29, -265, 481, 179, 257, -43, 91, 462, 254, 600, 565, -157, 261, 378, -190, 343, 340, -228, -274, 95, 97, 235, -65, -72, -175, -202, -10, 118, 317, -220, -118, -234, 213, -116, -238, 184, 171, 73, -111, 58, -146, 61, 279, 144, -70, 353, 133, 67, 293, 236, -47, -123, -190, 227, 408, 361, 176, 279, 501, -340, 118, -125, -28, -325, -114, 109, 20, -266, 43, 241, -175, -4, 51, -70, -385, 80, 0, 204, 482, 121, -283, 58, 53, -138, 62, 312, -30, 64, -132, -179, 372, 135, -69, 99, 484, -861, -532, -280, -58, -208, -34, -162, 263, 338, -399, -424, -118, -45, 83, -288, 244, 266, -26, -42, 33, 258, 231, 487, 303, -228, 237, 363, 17, 243, 13, -151, 303, 215, -18, 21, 289, -81, 218, -60, -116, 13, -123, 223, 208, 202, -6, -80, -386, 62, 245, -555, -51, 351, 91, -64, -35, 22, 16, 31, 4, -294, 307, 100, -153, 176, 270, 114, -254, 267, 231, -45, 111, -88, 280, -73, -128, 140, 237, 148, 6, 0, -326, -67, -260, 204, 225, 293, -99, -104, -40, -275, -175, -205, -306, 67, 425, 89, -5, 48, -181, 190, 46, 271, 279, 165, 126, -20, 29, -157, -189, -131, 96, 275, 277, -289, -605, -32, -47, -8, -165, -6, -20, -358, -1038, -185, -429, 116, 1, 714, -73, -628, -372, -508, -617, -720, -118, 40, 9, 259, -136, 263, -183, 112, 438, -44, -62, -120, 381, -105, 53, 345, 362, -160, 198, -57, 163, -158, -254, -280, -167, -408, -338, -161, 302, -101, -78, -268, -316, 8, 46, 106, 295, 210, 5, -582, -114, -293, -535, -500, -397, -4, -110, -226, 203, 317, 395, -105, 233, 318, -79, -132, 29, 88, 38, 82, 129, -597, 110, 101, 247, 40, -422, -486, -161, -399, 74, 175, -132, 430, 199, -132, -174, 353, -426, -503, -217, -16, -186, -158, 199, 288, 173, 540, -66, 227, 126, -144, 55, -47, -140, 535, -43, 193, 208, 54, -303, 70, -273, 21, -345, -133, -562, -315, 180, 163, -126, 300, 178, 407, -59, 66, 349, 100, -209, -311, 550, -13, 35, 20, 95, 485, 336, 199, 359, -336, -397, -244, -221, -86, -429, 86, 90, -119, 15, -217, 5, -173, -510, 103, -97, -244, -106, -259, -341, -38, -78, -45, 299, 366, -209, 186, 124, -121, -382, 687, -57, 51, 31, -85, -223, -144, -243, -161, 312, 202, 57, 55, 36, -172, -272, -398, -343, -414, -200, -572, -327, 15, -466, -770, -139, -489, -303, 41, 11, -368, -366, -108, 56, 7, -214, -43, 295, -12, -200, 121, -172, -436, 123, -663, -282, 111, -597, 257, -7, -33, 578, 173, 219, 426, 208, -84, -124, 315, -424, 253, 198, -184, -95, 121, -117, -19, -194, 75, 489, 172, -73, 384, 33, 261, 130, -48, -61, 417, -235, -24, 136, 47, 3, 36, -416, -477, -95, -28, 138, 122, -98, 284, 353, 342, 248, 196, 144, 192, 148, 239, 20, 8, -299, -347, 83, 160, -78, 218, -208, -383, 207, 240, 151, 117, 115, 33, 131, 250, 84, -26, 123, 175, 145, 126, 135, -761, -219, -263, -51, 285, 30, -13, 586, -179, 105, 49, 63, -220, -280, -290, -448, -940, -633, -462, -655, -517, -386, -135, -153, -251, -502, -544, -557, -184, -352, -47, 46, 6, 71, -326, -198, 44, -148, 323, -163, -180, -464, 103, 65, 43, 227, 377, 33, -103, 160, -328, -50, 63, -498, -65, -36, -212, 178, -105, -44, -428, -77, -366, -112, -112, -246, 298, -240, -141, 244, -48, 128, 452, 278, 349, -137, 9, -255, 198, 487, -82, 248, 187, 504, -304, 156, -232, 105, -144, 177, 492, 267, 296, 133, 74, -35, -47, 167, 377, 47, -97, 87, 350, 130, 436, -189, -5, -261, 82, 322, 278, 207, 308, -276, -329, -84, 11, -121, -154, 13, -390, -98, 584, 118, 63, 116, 840, 126, 135, -587, -391, 485, 383, -585, 11, -168, -44, 103, -129, -232, -281, -161, -409, -110, -273, 321, 36, 122, 440, -249, -15, 270, 364, -610, -451, 334, 477, -218, -327, 192, 168, -436, -327, 283, 50, -58, 232, -641, -261, 66, -118, 240, 80, 193, 214, 261, 193, -69, -2, -99, -206, -99, 104, -381, -596, -557, -781, -219, -358, 197, 186, -3, -70, 211, 68, -302, 84, 46, -302, -616, 338, 4, -3, 267, -193, 67, -16, -260, 309, 206, -186, 274, -493, -316, -27, -152, -151, 80, 528, -251, -130, 33, 87, -77, -311, 576, -276, -320, 23, 277, -192, -629, 336, -366, -36, 580, 29, 340, 311, 149, -405, 288, 13, -174, 204, 21, -152, 155, -584, -872, -9, 84, 161, 287, 276, 374, 353, 501, 97, 80, 248, -153, 222, 210, 102, 446, -505, -538, -215, -186, -45, -388, -239, -531, -195, 12, -103, -65, -169, 299, 162, 20, -96, -226, -920, -294, -294, -356, 628, 100, 252, 60, 65, 75, -13, 563, 510, -51, -44, 748, -312, -49, -142, 240, 211, 475, -204, -683, -78, 358, 289, 257, 128, 193, 132, -350, 175, -306, -337, -198, -252, -30, -47, -109, -118, 313, -268, -273, -308, -248, 412, -8, 633, 433, 150, 569, -230, -107, -167, 331, -6, -250, 351, 45, -580, -131, -127, -177, 423, 26, 300, -130, -136, -473, -69, 143, -9, 39, 26, -242, 124, 111, 55, -490, -415, -76, 149, 49, 443, 175, 15, 26, 34, 117, -140, 132, 177, 265, -279, -274, 186, -102, -110, -406, -40, -176, 5, -256, -74, -190, -328, -371, 97, 1, 169, 515, -272, 81, 55, 348, 158, 159, -151, -57, -381, -234, 87, -276, -435, -572, 47, 181, 265, 313, 153, 161, -15, -303, -42, -140, -91, -194, 53, 319, 144, 412, 192, 315, 581, -64, 308, 314, -122, 97, 194, -221, -467, -239, 291, -18, 50, 291, 16, -134, -492, 37, 49, 343, 48, 113, -194, -48, -4, -122, 51, -36, 66, -129, 189, -525, 80, -251, -40, 91, 311, 27, 213, 285, -101, -451, -342, -267, -63, 35, 393, 158, 197, -138, -101, -221, -643, -333, -95, -258, -118, 355, 100, -64, 208, 231, -195, 107, 180, 143, -85, 323, -139, 94, 62, 56, 46, 251, -147, -79, 256, 349, -80, -298, 225, 377, 88, 68, 142, -152, -154, -93, -119, 206, -69, 64, 220, 112, -91, 21, -5, -267, 108, 70, 269, 186, 508, 27, 4, 233, -605, 281, 124, 210, 45, -272, 35, 50, -26, 39, 282, 78, 450, -12, -6, -24, 298, 42, 113, -209, -96, 800, -168, 194, 45, 20, 289, 453, -306, -602, 100, -264, -517, -288, -434, -438, 416, 232, 366, 443, -28, -225, 119, 156, 89, 398, 132, -128, 161, 83, 259, -41, 240, 21, -46, 123, 33, -250, 262, 96, 186, 612, 295, 67, -259, 74, -92, -665, 184, -60, 255, 259, 233, -251, -11, 190, 195, -432, 292, -465, -33, 375, 326, 191, 445, 6, -147, -131, 334, 395, 23, -219, 20, 150, 80, -313, -102, -217, -70, 98, -332, -406, -52, -52, -307, 597, 267, -109, -285, -67, -26, -83, -131, 16, -38, -301, -155, 797, 248, -133, 42, -214, 319, -746, 308, -39, -682, 111, 247, 201, -261, -352, 239, -322, -221, -497, -6, 154, -35, -66, -163, 6, -3, 68, -130, -272, 19, 480, -362, -282, 227, -513, 188, 240, -424, -326, 92, -56, -563, -424, -603, -135, 389, -89, -207, 245, -40, 3, 14, 2, -199, 38, -364, -22, 235, -496, -367, 192, 98, -15, -126, -253, -400, 487, -232, 470, -131, -150, 331, 294, 284, -253, 273, 13, 50, 53, 146, -123, 177, 226, 204, -453, -53, 70, 87, 401, -136, -466, -253, 416, -503, -166, -43, -602, -116, 57, -233, -149, 79, -133, -327, 406, 86, -366, -276, 181, 152, -150, 121, -180, 31, 12, -76, 4, 320, 83, -28, 266, 153, 71, 145, -70, 338, 581, 46, 109, -17, -326, -534, 241, 141, 268, -236, -145, -75, -190, -259, -171, 168, 17, -389, -97, -459, -191, -401, 199, -204, -390, -6, -192, 136, 257, 561, 16, -659, 272, 232, -74, 455, 593, -224, -148, 245, -50, -309, -296, -187, -85, -369, 482, -63, -557, 138, 12, -236, -87, -190, -252, 28, -119, -739, -148, -297, -257, -11, -88, 281, -210, -111, -140, -514, -298, 107, 89, 170, -149, -239, -147, 247, 465, -329, 458, 299, 355, -505, -261, -312, 292, 161, -54, -273, -309, -305, 72, 488, -153, -478, -349, -391, -110, -184, -166, 273, -69, 296, 251, -387, 259, -210, 77, 80, -156, -444, -286, -213, 27, 353, -164, -288, -129, 215, -96, -416, -121, 15, 256, -409, 225, 127, -119, 342, 137, -152, 133, 277, 9, -215, -62, 435, 181, 26, -390, -508, -63, -202, 15, -21, -484, -298, -173, -104, 149, 218, -379, -336, -798, 323, 236, 527, 522, 130, -16, -92, -114, 333, 49, 63, -381, -367, 337, 66, -149, -320, 377, -362, -222, 178, -196, -47, 331, -569, -103, 266, 102, -26, 113, -491, -493, -429, -188, -152, 571, 442, 409, 369, -233, -107, -172, -373, -503, -693, 104, -172, -566, -117, -90, 382, -281, 0, 498, 22, 278, -615, 109, -310, -58, 582, 574, 240, 174, -174, -214, -91, -48, -361, -11, -14, -470, 32, 127, 74, 62, 103, 460, -193, -15, 430, -439, -515, -4, 115, 17, 560, 333, 281, 330, 64, -63, -34, -106, -211, -261, 585, 167, 309, 111, -531, -402, -139, -127, 227, -178, -264, -178, 291, -282, -11, -267, -18, -129, 103, 400, -112, 170, -159, 129, -60, -22, -83, -152, -485, -14, 66, 364, 124, 70, 98, 149, 161, -138, 196, 153, 162, -144, -6, 332, 27, -67, -177, -72, -190, -130, 261, 59, -123, -339, -174, -271, -203, -81, 496, 205, 169, 96, 150, -218, 18, 17, 384, 245, 118, -32, 40, -405, -277, -439, -196, 561, 108, 496, 52, -5, -110, -639, -534, -405, -95, -263, -334, 75, -162, -44, -397, -740, -251, 181, 246, 193, -46, 247, 131, -430, -351, -203, -173, -548, -72, -4, 257, 311, 339, 40, -63, 224, 42, 2, 141, -32, 23, -570, -289, -212, -58, -400, -93, -249, 121, -249, 163, 619, 99, -239, -329, 306, 287, 210, 391, 374, 367, 329, -274, -37, -31, 404, -185, 563, 161, 130, 491, -30, 262, 658, 239, 289, 204, -13, -38, -431, 167, -116, -51, -78, -207, 7, 400, -213, 284, 31, -129, -275, -382, -473, 139, 63, -221, -221, -549, -252, -200, 78, 291, -225, 26, 125, -630, -716, -528, -184, -359, 201, 221, -164, -4, 409, -392, 450, 711, 28, 280, 339, 115, -129, 202, 182, -160, -311, 20, -331, -155, -181, -134, -258, -372, 237, 354, 139, 118, -113, 300, -359, -662, -40, -113, -205, -310, 128, 358, 42, -234, -123, -44, -514, -58, -76, -48, -166, 173, 265, -167, -244, -99, -154, -450, 40, 255, -101, 203, -96, 47, 11, 337, -172, -16, -86, -398, 136, 10, 133, 504, 277, 573, 132, 223, 429, -99, 122, -369, -283, -455, -315, -94, -405, -84, -196, -545, -240, 372, 166, 58, 441, 346, 210, -2, 113, -56, -286, -219, 49, -203, 64, -79, 97, -80, 178, -636, 243, 166, -7, 121, -110, 19, 148, -334, -897, -502, -522, -109, 97, -30, 293, -79, 349, -113, 236, 307, -129, 52, 448, 121, 138, 349, -107, -314, -86, 179, -215, 426, -117, 2, 159, 466, 332, -7, 763, 190, 190, 75, 72, 244, 413, 58, 175, 525, 537, 607, 82, 76, -125, -23, -112, -159, -266, 278, 68, 179, -72, 327, -52, 44, -198, -227, 540, 0, 373, 11, -92, -324, 464, -803, -410, 229, -375, 13, -332, 8, -33, 40, -68, -47, -46, 21, -26, -5, -30, 77, 339, 410, 335, 323, 236, 255, 20, -51, 140, 132, 220, -10, 199, -24, -200, -144, -159, -38, -163, 217, 242, 181, -692, -739, -827, 22, 211, -129, -77, -127, -144, -56, -313, -167, 290, 66, -84, 207, 116, 131, -13, -6, 191, 41, 197, 27, 102, 59, -80, 72, 192, -19, 219, -31, 178, 92, -49, -84, -481, -190, -139, 142, -7, -103, 249, -189, 73, -204, 167, 87, 219, 96, -74, 86, 0, -237, 175, -20, 28, -118, -358, -132, 210, 12, 42, -231, -387, -255, 119, 139, 208, -207, -80, -133, -469, -281, -394, 76, -146, 23, 243, 156, 260, -256, -376, -69, -11, -27, -127, -314, -4, -34, -263, -463, -293, -179, -14, -188, 82, -97, -53, 167, 51, 89, 154, -61, -210, 47, 126, 124, -34, -101, 208, 223, 363, 160, -76, 210, 48, 100, -68, 60, -2, -323, -297, -43, 12, 229, -181, -126, 53, 228, 258, 179, 262, 69, 177, 209, 86, 3, 188, 264, -63, -105, -64, -61, -167, -147, 200, -97, -48, -174, -16, -255, 23, -122, -234, 17, 61, 106, -270, 346, 117, 286, -187, -468, -26, -302, 29, -309, -133, 4, -322, -61, 132, 152, -42, 247, 17, -76, 227, -90, 283, 84, 149, 127, 282, -210, 491, 167, -132, -399, -168, -534, -14, 331, -197, 12, -102, -87, 35, 44, 455, -202, -790, -184, -447, -418, -158, -239, 234, -102, -66, 93, -482, -65, -89, -301, 268, 704, -69, -225, 150, -89, -38, 446, -517, 25, 919, 279, 374, -219, -330, -139, -289, -146, 0, -19, 149, 267, 126, 37, -108, -540, -745, 695, 314, -399, -14, -195, -477, -99, -189, 64, -181, -32, -125, -514, -168, 38, -412, -89, -16, -344, -33, -472, -401, 23, -160, -314, -23, 278, -102, -273, -284, 166, 93, -83, 202, -256, -101, 298, 261, 236, -261, -257, -396, -46, -264, -623, -175, -333, -425, 501, -17, -35, 411, 423, 225, -483, -366, 142, -472, 216, -643, -253, -293, -275, 421, -196, -135, 198, 202, 40, 255, -54, -23, 93, -360, 103, -144, 557, 208, -240, 116, -428, -273, 167, -220, -456, -69, -328, -608, 66, -68, -180, 78, -529, -139, -49, -399, -37, 405, -283, -292, 256, -912, 140, 615, 3, -139, -288, -331, -133, -478, 66, 93, -127, 171, 462, 343, 272, -181, 405, -214, -96, 39, 659, -733, 58, -644, 75, 148, -637, 221, 301, 616, -209, -233, 125, 251, -234, -255, -226, -442, -138, -125, -120, -384, 483, 513, -314, 40, 230, -87, -84, 110, 330, 179, 55, 80, 169, -55, -36, -209, -162, -210, -185, -251, -439, -103, -9, -194, 18, -349, 344, -467, -251, 25, -450, 799, 85, -370, 84, 144, -172, -70, -11, -282, -79, -29, 62, -242, -62, -347, -304, 20, 264, -22, -133, -63, 160, 207, 1, 53, 398, 94, -52, 121, 209, 135, 575, -75, 191, 108, -27, -200, 55, 298, -280, -92, 52, 9, 88, -23, -103, 185, 274, 365, 157, 153, 39, 161, -28, 210, 204, -138, 22, 7, -489, -304, -160, -125, -424, 506, 4, -151, -44, 291, 128, 244, -155, -71, -109, 110, 11, 546, -120, -180, -118, 40, 242, 39, -56, 509, -216, 32, 95, -64, -127, -241, 142, -502, -336, -359, -312, -160, -154, -100, 88, 173, -225, 147, -53, -183, 459, 300, -138, -372, -83, -287, -58, -75, -49, 145, 69, -190, -93, 284, -68, 207, 40, -362, -115, -386, -392, -453, -237, -70, 223, 148, -465, -65, -32, -74, -182, 434, -142, 154, -56, -400, -144, -351, -149, -272, 197, -268, -24, 125, -258, 0, 11, 229, 54, 191, -56, 427, -5, 67, -121, 265, 207, 387, 272, -177, 795, 468, -237, 606, 435, -153, -161, 415, -168, 316, 369, -281, 531, 499, 96, -15, -223, -178, 33, 19, -63, 148, 643, -165, -18, -98, 52, 26, -120, 41, -103, -77], "b2": [23329348, 21757200, 8492178, -7847594, -6560599, 19568806, -24371248, -17139840, 32133210, -46527412, -850436, -6132097, -3771338, 7880237, 12065472, 11688335, 4936444, 12641336, 11271878, -1608170, 21268680, -2094638, -25177770, 5223701, 12722146, 10167304, -5375816, 86831, 3283776, 12477930, 12776146, -5506930, 13318452, -9638282, 35029280, 3524320, -22904716, 10971497, 14393848, 2691963, -8113208, 495186, 14170374, -5640874, -7599517, -975905, 17847576, -7267953], "w3": [-593, -589, -666, 1219, -1431, 253, -516, -719, -712, 368, -4508, -758, -2238, -2098, 968, 1956, -1255, -1025, 616, -173, 1210, -766, 883, 1489, -1517, -277, -984, 519, -423, 1165, 54, 715, -1312, 1076, 26, -437, -2262, -256, -1038, -2098, 520, -1505, -2421, 190, -1291, 536, 1328, 2496, -257, -1742, 381, -605, -302, 3157, 1024, 176, -1690, -424, 732, -820, 732, -1002, -2195, -1154, -939, 666, -306, -463, 810, 902, 640, 1609, -688, -1784, -802, -2891, -4048, 135, -1274, -646, -2127, 1177, 252, 1458, -1875, -850, -1303, -941, -1446, -628, 2799, 2124, 2639, 624, 862, 4199, 628, 1563, 4086, -531, 1688, 3977, 3080, 6982, 3018, 737, 2962, 5286, -2099, -1067, -1287, -2220, -35, -2666, -1074, -908, -2987, 1306, 1334, 1688, 2654, 905, 1794, 1756, 2142, 2971, -1897, -3041, -2026, -3250, -5358, -3046, -1689, -2485, -3888, 2772, 1569, 2680, 2182, 437, 4510, 2633, 1233, 2490, -539, 824, -479, -212, 590, -1513, 236, 1102, 938, 286, 1336, -2385, 867, 1713, -949, 2825, 4175, -440, -1476, -2236, 558, -3045, -2512, 2055, -3473, -2438, -1019, -2500, -1462, 1505, -2008, -842, -1154, -863, -3371, 3008, -2973, 577, 1240, -1200, -424, -907, -4773, -138, -1019, 1132, -1206, -299, -971, -1531, -565, 2434, -2249, 727, -1393, 582, -1311, -1590, 1658, -2288, -404, -457, -1539, -1663, -1190, -2465, -1637, -1237, -1196, -977, -426, -864, 359, 1944, -936, 1195, 327, 1381, 1515, 2079, -516, -713, 1605, 1188, -1693, -463, -1835, -818, 1000, 553, -1422, -381, 995, 1924, 1426, 1466, 806, 1488, 1138, -382, -618, 73, -1491, 36, -831, -121, -1915, -1046, 1402, 279, -2520, 1729, -2173, -1942, 2007, -1578, -279, 386, 3, 474, 670, -765, 336, -1113, -770, -915, 3302, 1444, 336, -556, -581, -270, -143, 2074, -830, 17, -390, -871, -1070, -1460, -2724, 924, 717, 1861, 530, 951, -236, -1063, -797, 1550, -35, 686, -559, 1966, 1664, 451, 2273, 1096, 1235, 1982, 3401, 1430, -1419, 125, 536, -1599, -93, -523, -1339, 868, -750, -3173, -993, 606, 882, 0, -362, 1414, 199, 1680, 306, -237, -1957, 116, -2233, -2757, -324, -330, -1907, -518, 360, -3926, -114, -19, -2062, 632, -37, -778, 2505, 1338, 2592, 3494, 3933, 4772, 54, 1413, 1475, -1378, -2439, -144, -401, -1354, 504, 529, -1587, -1059, -848, -1509, -2022, -927, -2962, -3440, -699, -3207, -200, -667, -1213, -2653, 124, -2240, -2668, -46, -549, -2123, -849, 607, -520, -2415, -1310, -1085, -592, -288, 857, 4218, 614, 1249, 4363, 1281, 2132, 1188, 289, -975, 1257, -620, 874, -367, -1864, -457, 260, 666, -145, 60, -850, -1552, -1061, -627, -1937, 900, 4, 757, 2372, -637, 2279, 149, -411, -1520, 277, -849, 1586, -1102, -1892, -2745, -1367, -1609, 480, 3506, -2954, 1130, 3802, -1481, 1894, 384, 723, 2033, 1446, 369, 182, 688, 1195, 4418, 2141, 1154, 5743, 3048, 1040, 3168, 1931, 428, 195, 294, -887, -1696, 2367, -119, -1120, -1474, -1056, 241, -151, -1750, 808, 391, -1454, 774, 475, 1927, 690, -1565, 1762, -1989, -521, 718, -46, -1373, -1271, -1456, 1414, 253, -1115, 1320, 279, 156, 1469, 661, 1030, 1851, 1857, 1422, 2146, 1509, 1673, 4839, 2108, 1471, 2788, 606, 1781, 2915, -2049, 1089, -1051, 483, -155, -2184, -1343, -861, -1169, 1568, -837, -720, 572, -1071, -1006, 1157, 4, -192, -1120, 1311, -533, -678, 431, -346, -971, -1548, -788, -1996, 952, 2695, 2159, 2757, 1128, 1796, 1399, 2418, 4967, 5467, -10, 2997, 201, -146, 2273, -503, 2674, 4158, 697, 1213, 615, -2, -125, 992, 2175, 2198, 1003, 142, 976, 2518, 1385, -816, 3441, 809, 1777, 1938, -652, 1838, 1748, 2527, -1055, -1785, 875, -1940, -456, 448, 1246, -1136, 414, 387, -53, 1487, 153, 189, 2043, -1518, 624, -207, 2795, 2481, -574, 2704, 541, -329, -1706, -3614, -2448, 113, -3266, 177, -1093, -2204, 19, -2975, -2191, -1735, -110, -24, -561, -1418, -1019, -2563, -662, -2095, -671, -2216, -244, 921, -3078, -1144, 3068, -89, -1988, -1321, -2413, -1098, -462, -1387, -127, 1461, -1407, 897, 1331, 1018, -591, -833, 418, -862, -1920, -3538, -3332, -1744, -3235, -1473, -2257, -4229, -2584, -2652, 372, 273, 1250, -84, -1412, 1762, 813, 478, -464, 3095, 913, 2930, 573, -13, -1686, -871, 3620, 3408, 1788, 677, 1339, -262, -1797, -598, -2298, 60, 887, 1768, -634, 2000, 2137, -179, -519, -186, -1142, -523, 2303, 947, 2079, 2063, 658, 3234, -666, -568, 2541, -1626, 1452, 230, -2545, -575, -1746, -2436, -1746, 4108, 256, 799, -41, -596, -1063, 700, -602, 1235, -665, 862, -574, 1079, 384, 2113, 673, -641, -1210, -644, -231, -1707, -2865, 739, 1472, -1009, 114, -209, 940, -1800, -1959, -2085, 803, 680, -886, -375, -267, 845, 297, -775, -2931, -1273, -1999, -2672, -222, -891, -1873, -721, -3539, -1804, -1119, -4563, -4897, -332, -2905, -1536, -997, 1103, -1275, -360, 874, -621, -1534, 998, -651, -2707, -1579, -4754, -2042, -3050, -3928, -216, -897, -3774, -774, -1090, -2975, -351, -1334, -719, 732, 258, -1615, -148, -258, -880, 420, 180, 1867, 798, -820, 433, 142, -641, -1121, -416, -934, -3101, -414, 904, 201, -566, 2326, -2528, -2448, -1874, -490, -2034, -1834, -2053, 3567, 1663, 3325, 3014, -599, 854, 186, 795, 2362, -2828, -2729, -529, -2290, -1295, -1652, -2418, -1579, -2096, -3643, 430, -307, -143, 487, -1873, 1139, 984, -1245, -210, 805, 396, -468, 49, -1002, 1759, 2442, 1807, 971, 12, 2960, 1398, -220, 2847, 2463, -126, 371, 1083, 1983, -709, -1048, 308, 328, 676, -342, -198, -2220, -148, -114, -3736, -660, -1718, -1466, -1192, -276, 4452, 1740, 3636, 559, -149, 1602, -300, 407, -341, -408, 273, -1397, -601, -985, -1812, -3018, -1447, -1956, 104, 54, 2461, -106, 845, 1220, -2500, -1446, -221, -2654, -742, -1755, -1828, 56, -1349, 450, 345, -826, -1153, 198, 75, -51, -179, 377, -571, -1572, 15, -2234, 756, -657, -1873, 535, -1871, 557, -439, -1551, 2690, -2853, -1804, 1289, -968, 1815, -1024, -3661, -1298, 3581, 1473, 2292, 366, 456, 3223, 2381, -145, 422, 1497, 1797, -447, 2321, 1921, 1324, 361, 1235, 1957, 2280, 324, 1573, -1454, -1037, 1770, 902, -137, 351, -174, 2125, -1189, 182, 983, -3366, 2057, 2179, 787, 1251, 702, 290, -1889, 627, -2000, 938, -1419, -2401, -14, -1131, -1420, -424, -102, -1388, 3151, 1278, -645, 1305, 1304, -567, -1289, 1255, -856, -459, 1633, -1662, 3353, 408, -126, 624, -426, 1826, 930, 1418, 226, -892, -213, -2212, -615, -511, -704, -1493, 808, -551, 3018, 992, 3324, 1854, 512, 2924, 2612, 3129, 1533, 2255, 1386, -243, -594, 1675, -2007, 1409, 459, -3756, 1416, 854, 3609, 268, -57, 467, 334, 645, 2146, -2841, -1819, -2684, -847, 1674, -2430, 608, 358, -1028, 1400, 172, -14, 1046, -2602, -2150, 551, -2492, 552, -56, -2144, 2553, 929, -371, 2657, 2105, -19, 2739, -2534, -2216, 903, -357, -913, 1486, 292, 141, 3237, 1305, -1295, -2913, -1157, -566, -3219, 614, -1989, -3694, -1577, 1262, 1187, -1313, 1291, -747, 1290, 4265, 3099, -3160, -1913, -1068, -2008, -2192, -262, -578, -1516, -1721, 3516, 694, 2786, 5963, 1232, 6449, 2624, 1848, 5385, -1203, -1921, -561, -1481, -3195, 1253, -264, -2340, 704, -214, -961, -515, -138, 1260, -13, 3614, 1753, 2075, 1342, 799, -1670, -1112, 146, -920, -1825, -446, -3876, -486, -1630, -1882, -4166, -1765, -645, -2115, 558, -2058, -666, 620, 425, -964, -1054, 390, 1189, -277, 171, -534, 1308, 420, -1163, -493, -940, -1575, -584, 344, 488, -684, -1979, -2256, -509, -1250, 903, 545, 892, -1400, -84, 991, -1964, 97, 792, -3046, -1512, -1112, -1720, -1389, 351, -768, -822, -184, -1038, 312, 398, 3905, 1967, 2483, 3664, -63, 909, 2279, 406, 1762, -3260, -2374, -4092, -2445, -1597, -2285, -446, 715, 63, 1832, 163, 2143, 690, -1433, 1189, 2357, -493, 1713, -1599, -1676, -3249, 404, -917, -1552, 323, -1231, -1652, -83, 1215, -103, 598, 1547, 596, 1572, 1168, 1859, 419, 679, 1040, -89, 1727, 1114, 104, 1904, 242, -2944, -1186, -1742, -1212, -735, -1991, -2598, -1212, 0, 1795, 992, -1078, -560, 1285, -1642, -2718, -452, -2388, 430, 2880, 655, 50, -222, -3357, -3302, 445, -2559, 4777, -667, 2605, 2038, -683, 608, 1169, -2488, 571, -201, 612, 2779, 1451, -1220, 2390, 671, -1770, 247, -2027, 980, 751, 2, 1124, -2850, -1861, 327, -2235, 1716, -54, -369, -520, 1193, -1357, 2181, 289, -1320, -1000, -1673, -543, -951, -2005, 333, -1261, -1508, 279, -394, 1107, 843, 3042, -853, -8, 345, -417, -637, -1386, -661, -2028, -2979, -73, -147, -3318, 250, -1779, 168, 144, 492, 868, 437, 1317, 1391, 548, -1494, -644, 3056, -70, 2627, 1954, 1592, 1189, -677, -2013, 92, 123, -579, -1999, 47, 135, -2421, 1021, -437, 539, 2650, -227, 2532, 3699, 4230, 963, 2562, 1051, 3554, 1903, 2760, 3148, 1517, 4664, 3223, -275, 1189, -710, -1386, -883, -482, 353, -548, -682, -1326, -1030, -176, -763, 498, -384, -479, 922, -799, -137, -76, -1505, -212, 184, -3259, 431, 122, 588, 1735, 124, -200, 825, 1112, 1121, 755, 1138, -99, 2617, 1476, -650, -686, -435, 408, 39, 1000, 7, -1092, -586, 1071, -70, -2542, 342, 184, 599, 1197, -1274, -1097, 2059, 2807, -176, 896, 3067, -1365, -43, 1980, -1122, 752, 93, 1785, 1217, 85, -266, 1440, -114, 1051, -2424, -336, 1236, 2189, 2635, 2955, 5513, -891, 2829, 331, 411, 1398, -3777, -857, -250, -1132, 24, -1476, -377, 870, 915, 3937, 2188, 3073, 1238, -1160, 2497, 703, -1465, 280, 464, 748, -906, 459, 1859, -411, 328, -1754, 1192, -3003, -1377, -543, 430, -899, -1270, 4532, -106, 2338, 3681, 3471, 2034, 3115, 3457, 3712, 2265, 883, 340, 1275, 1605, -805, 3220, 2560, 2309, 2876, 2723, 4730, 2577, 1462, 4461, 2464, 575, 3423, -2040, -1320, -3131, -980, -1567, -5368, -1282, -2237, -3539, 504, 64, 831, 3286, 2291, 1212, 1, 1535, 1665, 620, -1345, -825, -2703, -1108, -2526, -3144, 843, 215, 1127, 696, -1787, 229, 1545, -69, -1959, -662, -1486, 1748, 460, 691, -1433, 1432, 1465, -1483, 610, -731, -1395, 401, 410, 294, 1259, 1275, 1604, -1158, -1472, -5057, -1606, -3787, -3691, -539, -321, -5082, 11, 138, -1189, -213, -1767, -262, -522, -3048, -3541, -664, -1459, -263, 1267, -46, -510, 174, -622, 187, 109, -535, 4779, 3264, 2943, 1139, 414, 1691, 936, -1153, 560, -2042, -1525, -1597, -2797, -674, -3362, -2275, -1533, -2124, -1457, 642, 2714, 516, 542, 3332, -572, 1541, 1547, 3801, 930, 1952, 4214, 1521, 869, 911, 894, 2998, -627, -1379, 882, -1044, -1015, 507, 658, 394, -62, 2279, 879, 2414, 5503, 1710, 5438, 2537, 899, 976, -363, -170, -943, -1174, 2275, -1123, -734, 63, -1776, -1461, -1135, -1125, -3157, -2103, -5712, -2161, -2364, -2961, -742, 749, 1236, 146, -492, 1066, 1427, 2218, 220, -1124, 9, -946, -428, 1088, 1536, -1180, 2610, 1140, -16, 564, 685, 1379, 539, 2358, -871, 667, 262, -1408, 937, 2147, 392, 1237, 260, -1410, 872, 2943, 3721, 241, 2745, 2828, 1531, 3983, 2373, -433, -410, -1745, -2868, 933, 409, -2448, -78, 1619, -1632, 1079, 3401, 3602, 1631, -125, 3497, 868, 2044, 82, -593, 1204, -309, 3416, -637, 857, -290, 2336, 2576, 3251, 954, 1849, 1263, 193, -1652, -1767, 1273, 1124, 732, 3389, 1632, -803, 1520, 2435, -575, -1822, 1116, -1519, -81, -1833, -2188, -630, -1641, -1182, -2426, -1704, -2384, -1388, -1938, -3563, -814, -241, -41, -2544, -872, -1839, 2077, 694, -574, 1027, -1222, -1091, 955, -2139, -1877, 2097, 457, -99, 1029, -98, 1600, -2576, -1593, 977, -950, 1582, -251, -354, 1915, 60, 294, 1348, -2480, -363, 162, -306, -1881, -883, 401, -1668, 1246, -392, 921, -941, 173, -937, 887, 1249, -238, 700, 3020, -1648, -1022, -186, -1543, 7, -744, 38, -1477, -1508, -1888, -352, -7, -1889, -3319, -254, -1907, -164, -2086, 2912, 2460, 4784, 2790, 911, 926, 2156, 3547, 1219, -639, -3007, 409, 1597, -708, 1404, 651, -327, 442, -1409, -2981, -2875, -529, -1211, -211, 957, -1144, -1696, 1654, 1496, 956, -2178, -2643, -2236, -767, -528, -1967, -777, -1838, -150, -428, 1341, 203, -750, -918, 336, -2271, 280, -143, -76, -634, 615, -622, -558, -39, -2763, -2876, -1410, -1290, -1140, -2092, -4445, -2000, -3559, 1452, -516, -1382, -1084, 1856, 272, -1328, 1404, -846, -2034, 1898, 4008, -138, 2659, -856, -964, 3261, 664, 3801, 1209, 3390, 362, -1141, 1290, -347, 282, 431, 1163, -1045, 1278, -1724, -1272, 772, -65, -1573, -417, -3075, -1008, -1674, -2743, 382, -517, -5108, -1049, -1883, 2771, 1443, 6170, 1798, 2674, 597, 3447, -423, 3860, -876, 604, -2021, -2363, -1310, -520, -1458, -1072, -338, 262, 1033, 2077, 2149, 1984, 3792, 1671, 183, 3164, 821, 319, -1249, -155, 1031, -2449, 631, -1184, -1267, 3422, 3063, 4895, -627, 1565, 3351, 4430, 1847, 3045, 1724, -238, 140, -1034, -861, -3169, 373, 362, -2416, 522, 1083, -1970, 927, -237, -2044, 2159, 241, 1299, -73, -3152, -901, -682, -522, -2846, -1324, 424, -273, 113, -1725, 15, -23, -74, 80, -157, -1011, -1041, 1141, 146, -1726, 2785, 2732, -1405, 546, 624, -2066, 900, -1443, -693, -130, -1895, -1311, 469, -111, -1646, 2436, 1439, 1353, -2330, -1248, 767, 247, 487, 2546, -925, 193, 363, 613, -872, 1027, -495, -2, -74, 996, 912, 2909, 2403, 1156, 3609, 3495, 945, 4094, -1298, -1772, 194, -223, -2222, 1719, -1971, -3174, -1820, -1530, -2834, -1072, -1997, -1918, 620, -1480, -1097, -1026, -1913, -696, -2466, -1894, -1350, -1068, -1259, 1444, 1352, -2593, -858, -2312, 658, -1173, 1400, -171, -123, 1413, -1244, -2392, 138, -47, 1195, 464, -2530, -772, -274, 390, 1218, 4540, -797, 1469, 3628, 557, 1709, 2997, -473, 193, -2119, 2047, 2195, 729, 1731, 615, 928, 1557, 1878, 258, 2313, 761, 2383, 2566, 1032, 1772, 80, -598, 3260, 1339, 2080, 2568, 427, -1507, 567, 788, 2264, 114, 443, 1896, 2014, 168, 387, 410, 2638, 1705, 2181, 3147, 1167, 114, 1782, 2451, 672, -1484, -3175, 388, 1778, -626, 3183, -1678, -717, 982, 2473, 1878, 1271, -1102, -365, 1676, 470, 800, 2828, -455, 1856, 786, -406, 1022, 1585, 459, 2140, 1398, -681, 775, 4316, 2236, 4660, 3649, 2366, 1670, 6056, 1253, 1663, 2555, 1926, 3623, -338, 1413, 4347, 865, -665, -1147, 1555, 518, 2162, 2654, 2593, 1212, 4437, 2314, -871, -336, 270, 2710, 972, 1191, -1182, -2383, 545, -1800, -108, -2493, 115, -407, -1936, 84, 840, 2138, 4224, 4108, 5182, 3846, 4221, 3125, 3343, 4664, -791, 1548, 396, 747, 3728, -631, -2456, 280, -1648, -402, -314, -13, -2623, -524, -1767, -811, 481, -217, 1035, 894, 555, 3360, 1404, 1340, 2632, 1923, 2312, 1437, 873, 960, -1341, -2809, 2965, -1631, -1611, 92, 55, 1003, -1181, 398, 418, -485, -144, 1630, -856, -1444, -2193, -1105, -1758, -2512, -522, -2403, -754, -1213, 228, 593, -192, 897, -3853, 1047, 1837, -1496, -1448, 533, 2012, 2087, -367, 914, 1010, -1548, 973, -971, 2072, 763, 3106, 393, 1599, 636, 1456, 531, 1726, 275, -857, -798, 927, -1655, -3961, 671, 1587, -1478, -1125, -1188, -1823, -4473, -1337, -2316, -1291, -437, 761, -3104, -2647, -3746, -2985, -2683, -3967, -2804, -2219, -3693, 1121, 645, -1791, 402, 2838, -1019, -821, -2460, -3603, 703, 568, -1234, -937, 2333, 694, 804, -285, -1853, -2007, -181, -2073, -1918, -1689, -426, -4298, -737, 1072, 698, 219, 156, -779, -1194, -3020, -125, 806, 314, -157, -572, -542, 2309, 2607, 385, 2654, 1920, 4108, -906, 686, 1351, 283, -3149, 2928, 1299, -874, 2522, 495, -928, -1798, 556, 351, -1908, -270, 2629, 2001, 1606, 324, 273, 1651, -1285, -947, 1626, -2048, -2285, -115, -83, -1052, 801, 2275, -3464, 1657, -246, -3336, -505, -641, 295, 738, -341, 1708, -823, -2115, 1641, -840, -2511, -3287, -1622, -2342, -4523, -2368, -2953, -3828, 2522, -610, 748, -341, -2283, -1056, 1947, -1896, -434, -620, -2615, -1712, 893, -41, 1542, -98, 2669, 1123, 2034, -1120, 482, 1287, 358, -1404, -35, 1301, -65, -87, -679, -494, -687, -445, -328, -134, 353, 91, 2667, 3000, -838, -975, 629, 254, -240, 1721, -83, -769, 2138, 1205, 750, 2400, 272, -342, -2194, -998, -991, -1713, -1705, -1546, -3038, 729, -1638, -2719, -1398, -3143, -2239, -3562, -3081, -3074, -2880, -3367, -383, -1700, -1075, -1863, -66, -2248, -1583, 939, 809, -2539, 270, 2679, 2324, 2000, 1355, 834, -2418, 600, 2853, 2210, -750, -1552, -2193, 991, -3471, -1450, 305, -1505, -2496, 1049, -348, 3129, 698, -1701, 1024, 1527, -1684, 3046, -1179, -362, 3410, -1655, -1052, -2014, -276, 3236, 755, 3011, 1441, 4120, 2628, -267, 2426, 2200, -1417, 4457, -1106, -718, 610, -2683, -244, 624, -1109, 1117, -1171, 3052, 1369, 3504, 1768, -195, 734, 1641, -593, -1243, 1217, 1739, 1461, -935, 246, -765, -1090, 885, 908, -1843, -32, -2239, -1753, 334, -1432, 1610, 1649, -1072, 1061, 1338, 479, 1462, 1938, -383, 2060, 651, 1083, 943, 2825, -701, -425, 767, 485, 1512, 1429, 1886, -1461, 92, -321, -420, 778, -1201, -2147, -460, -1984, -1353, -2037, -251, 919, 2404, 666, 2381, 871, 2562, 206, 1882, 452, 2173, -251, 1923, 1780, -1009, 1405, -1689, -4176, -2631, -3237, -4555, -2028, -2663, -4138, -4372, 74, 332, -2995, -59, 240, -2759, -1350, -685, -2489, 5455, 3477, 2537, 5333, 1749, 3832, 5609, -189, 2688, -2213, 36, -2041, -2016, -1557, -3345, -1935, -1739, -2261, -1648, 45, -1191, -1119, -1387, -1859, -889, -2684, 112, -1561, -3252, -2494, -2575, -2389, -1327, 66, -2265, 1608, -221, 3600, 1667, -1818, 916, -3019, -1879, -654, -4826, -1441, -2232, -3685, -2222, -871, -4045, -1658, -3291, -4245, 201, -1781, -1593, -892, -816, -518, -1063, 582, 3331, -64, -2303, -3039, 94, -2716, 81, 1276, -2264, 449, -1316, -159, -821, 733, 420, 365, -644, -86, 4498, 192, 51, 1272, 780, 253, 200, -624, 756, -398, 391, -1688, 449, -264, 1200, 1669, 335, -2047, -245, 2634, 1139, 3034, 451, 709, 531, 1512, 935, 902, 1717, 2404, 583, -1177, 993, 277, 1337, -1224, -546, -660, -2198, -1195, -2238, -1950, -2302, 540, 905, 678, 3299, -145, 1001, -1372, -912, -743, -284, 1456, 146, 1120, -1622, 744, 1748, -717, 110, -1871, -1540, -785, 2020, 1364, 889, -94, -848, 2016, 231, 1035, 1886, -2186, 43, -2928, -2799, 316, -1705, -1442, 1806, -2900, 413, 421, 1126, 3032, 344, 3289, 4724, 443, 2254, -501, 1136, 1664, 701, -61, 908, 366, 404, -1084, -1042, -733, 1054, 406, -881, 731, 1889, 723, 1833, -892, 422, 138, 542, -210, -720, -222, -1544, -2366, 86, -97, 2055, -1257, -1616, 767, -1125, -1594, 60, -1841, -766, -1845, -5215, -1444, -3696, -4069, -2030, -3035, 1455, -1070, 1167, 2641, -44, 237, -225, 1684, 972, 1110, 1094, -884, -989, 1049, -429, 1225, 1913, 2452, -39, 511, 323, -227, 948, 843, -1750, -1867, -1732, 885, 679, -727, -104, -1572, -1798, 767, 748, -734, 3080, -856, 2761, 2497, 937, 1796, 4023, 250, 3963, 1611, 3018, -751, -230, 967, -1115, 1460, 125, 504, 3257, 1322, 1877, 2444, 1186, 1397, -361, -188, 105, -1951, -413, -2026, 722, -1709, -709, 238, -344, -1122, -1811, -196, -973, -4035, -2210, -4115, -2743, 389, -1814, -705, -694, 956, 1312, -389, 501, 2663, -1048, -154, 1579, -239, 1142, 492, -222, -720, -957, 19, -1335, -1133, -161, -359, 716, 3170, 2217, 4496, 2616, 2502, -634, 164, 2901, 2805, 1517, 1443, 1312, 835, 2459, 502, -482, 3175, -1189, -2335, 1780, -1793, -2628, 449, -1332, -48, -649, -695, -1017, -3618, -2737, -1848, -1701, -2341, -1534, -2138, -1825, -2683, -3951, -2684, -1710, -1510, 530, -1782, -1094, -1684, 49, -666, 1926, -612, -1800, 731, -1938, -1698, 2396, -793, 244, 2241, 458, 759, -57, -640, -516, 1594, -215, -1805, 622, -533, -2543, -327, 66, 480, 602, -666, -1330, -24, -685, 642, 2025, -844, -502, 2123, 1277, -740, 2331, 1854, 571, 620, -506, 1872, -1117, -591, 1358, -1264, 1818, 981, 1929, 1998, 932, -655, 1911, 1630, 823, 638, 555, 364, -147, 139, -1025, -1621, -30, 437, -1216, -464, -450, 1299, 2109, 1328, 1769, -603, 1402, 2720, 991, -120, -656, -1522, -2206, -2655, -2136, 867, 95, -2576, -1256, 1466, 1129, -2657, -1178, -2178, -1441, -1597, 39, -333, -1932, 72, -619, -1818, -714, -400, -1911, -1413, -346, -3040, -1309, -2486, -4351, -4079, 306, -3194, -2689, 1929, 12, 38, 761, 67, 1039, 1295, 223, 1371, 782, 2753, 3905, 228, -391, 1037, 63, 2767, 2836, 334, 1172, 111, 1270, 1337, 2620, 1959, -424, 2988, -376, -1092, -3556, 303, 773, -1874, -764, 944, 123, -48, -1666, 269, 880, 69, 178, 621, 1150, 1522, -324, 752, 1077, 1279, 3234, 930, -1353, -762, -633, 420, 269, -1484, -653, 1909, -1290, 549, 1119, -234, 1379, 2485, 3351, 7, -287, 30, 888, 728, -705, 13, 881, -1395, -662, -878, 551, -773, -344, -570, -93, -97, -2208, -877, -220, -20, 1001, 167, 1050, 876, -1174, -2422, 142, -1726, -564, 497, -1809, -2018, 1217, 1266, 839, 1594, -608, 775, -303, -1459, -392, 1521, 233, -783, -1042, -1741, -2550, 1393, -1521, -4599, 1728, -104, 1630, 446, -337, 1587, 735, -323, 228, -2760, -1817, -2706, -3418, -2116, 309, -1205, 331, -1693, -1501, 493, 1184, 1451, -1752, -250, 628, -1132, -790, 2649, 571, 727, 2529, 4353, 3266, -861, 2082, 3099, 520, 1408, 2684, 384, 784, 2914, -39, 1821, 1086, -1389, -995, -1346, -2737, 14, -1866, -2399, -460, -2419, -473, 94, -75, 44, -28, 67, -946, 1006, 223, 1600, 575, 2040, 45, 639, 1415, 929, -421, 357, 265, 431, 409, -893, -963, -117, 728, -528, -1137, -1888, -825, -587, -2991, -1210, -505, -976, -924, -751, 1025, -1380, -3054, 925, -1280, -2763, 2523, 2137, -2039, -760, -766, -1142, 1407, -1940, -170, 2031, -1684, -500, 302, 1336, 1631, -529, 978, 898, 788, 1750, 1051, 1600, 2145, 1209, 2085, 1102, 498, 2634, 1236, -229, -522, -769, -1560, 986, -787, -1497, -69, -1332, -774, 5151, 2685, 543, 2520, 2620, 348, 2017, 1882, 2342, -145, -2784, 1511, -2561, -1864, -1660, -3294, -2170, 477, 90, -565, -496, -240, 2677, 4068, 2606, 3206, 2061, 1051, 50, 1348, 1935, 1237, 2650, 3506, 636, 3829, 2898, 458, 1703, 74, -724, 683, 1428, 209, -177, -2618, -1820, -2879, 1609, -314, -1086, 620, -1595, -357, -861, -761, -691, -2341, -305, -2677, -226, 962, -2290, 868, -356, -703, 701, 1380, 1283, 173, 919, 671, 40, 1049, -1096, 597, 2933, -657, -1437, -1999, -1943, 1668, -849, 1395, -545, -753, 738, -595, -1607, -609, -889, -1934, -1118, -319, 99, 167, -2398, -2483, -505, -519, 403, -1736, -1718, -180, -3239, -4023, -1410, -2752, -2759, -1650, -3761, -5520, -2035, -2732, -1684, -1510, -3763, -1962, -1955, -2975, 425, -53, -1175, -2092, -3704, -2422, -433, -1824, 535, 421, 63, 1902, 1659, 851, 1584, -51, 171, 1419, -1265, -583, -1384, -374, -1326, -773, 1002, -718, -809, -1218, -412, -1416, 1811, 1920, -557, -1747, 153, 478, -1186, 40, -541, -1764, -184, -764, 1621, 553, 3811, 387, 1006, 4464, 2750, -624, 2817, 1683, -1152, 3119, 1788, -176, 2313, 3360, 335, 2291, -670, -514, -539, -359, -1673, -1664, -443, -1589, -1740, 4418, 2723, 2819, 2076, 1171, 1641, 2920, 2619, 2819, -342, -2550, -1928, 135, -1533, -631, 1215, -3559, -3301, -7004, -2566, -216, -3404, -1904, -449, -1387, -643, -23, -667, 151, -103, -790, -331, 646, -690, -660, -189, -811, 861, -3115, -2132, 557, -2044, -366, -710, -3137, 1703, -292, -2268, -752, 892, -407, 3061, -343, 1293, -697, -2905, -499, -1207, -3430, -2774, 807, 281, -634, -690, 946, -200, -1272, 1470, -1384, 240, 192, 1551, -161, 1644, 756, -2189, 704, -1544, -254, 2024, 1604, -237, 1527, 425, 502, 570, -46, 1445, 1323, 1242, -205, 836, 800, 59, -1299, -73, -1895, 1479, 2667, -644, 720, 1, -2073, -725, -774, -1993, -311, 318, -98, -1372, 1142, -1113, -533, -276, 1841, 449, 1050, 2820, 1193, 445, 3559, 602, 1107, 5873, 412, 982, -136, -603, -4181, 1223, 401, -1511, -1782, 398, -2142, 3187, 1356, 2127, 540, 1724, 2173, -875, 1196, 1171, 3516, 1457, 4173, 2645, 814, 4738, -290, -1524, 1093, 4260, 928, -2799, 3075, 1615, 31, 803, -89, -759, -164, 1707, 1166, -157, 943, -800, -1262, 41, -848, 758, 3803, 2166, 1322, 3238, 1925, 5, 2660, 2365, -3425, -2627, -1221, -2043, -3150, -3488, -3023, -2301, -3215, 1717, 1721, 2671, 1149, -135, 175, 4700, 1280, 2982, -150, 457, -1498, -1466, -656, -553, -632, 1347, -528, -658, -253, 157, -2476, 1011, 469, -62, -999, 1709, -3337, -1432, 899, -1874, -1872, 400, -786, -556, 11, 1217, 1449, 3492, 2347, 1547, 1139, 1612, 449, 1864, -2279, 259, -182, -969, -511, 28, -406, -140, 1351, -3408, -1426, -3040, -2269, -1569, -1806, -569, -2617, -2741, -783, -2644, 1644, -1979, -308, -2496, 477, -1249, -1525, 2285, 1902, -499, 2979, 3081, -538, 2191, 1563, 166, 3232, 1502, -333, 1198, 1886, 950, 1630, 2651, -10, -41, -464, 1199, 2627, 1949, 2513, 312, -61, 529, 2157, 1388, 4192, 2492, 1997, 3041, 2169, -634, 3685, 645, -1623, 328, -908, -1147, 560, 316, -1187, -1041, 3602, 875, 3819, 2237, 752, 1230, 529, 315, 942, -3120, -4004, -996, -3804, -4199, -1685, -2840, -3981, -945, 1334, -1733, 271, -1494, -2294, -1463, 254, -981, -191, -332, -1983, 716, -3180, -439, 580, -899, -245, -712, -1426, -1946, -759, -2314, -662, -2359, 383, -487, -1463, 2991, 1653, 1826, -770, 2534, 819, 3063, 3384, 1641, -5001, -483, -3428, -2440, 508, -3049, -5000, 1914, -3143, 92, 137, 208, 3089, 184, 2993, 209, 927, 1620, 1221, 2759, -17, 2045, 1145, 4530, 1260, 1109, 2923, -441, 1152, 1330, -1642, -2, 1387, -535, -488, 2318, -318, -1336, 808, -661, -1219, 1591, -1337, 23, 810, 1924, 1975, 1619, 852, -385, -210, 1747, 212, 1119, -754, -2413, -64, -1348, -1470, -1960, 544, -2122, 823, 3961, 364, 2210, 1196, 2018, 1678, 2111, 978, 808, 832, 1351, 1372, -2508, -1434, 529, -3412, -1392, -956, -2001, -513, -2589, -1560, -855, -3992, -3950, -1323, -5468, 1436, -1265, 1793, 977, -469, 2889, 468, -789, 1244, 135, -1195, 778, 969, 790, -1382, 2196, -1777, -215, 695, -201, -1522, -616, -1894, -913, 1101, -839, -207, -1669, -3452, -316, -1431, -1653, 482, -1004, 361, 2299, 1310, 280, -1145, 403, 1512, -1170, 1840, 1870, 103, 252, 1656, -629, 1575, 1877, -184, -553, 235, 636, -611, -1457, -1081, -1239, -107, -1025, -2255, 1739, -1160, 138, -1816, -1059, -724, -1954, -2847, -773, -1445, 306, 853, -853, -1738, -2851, -494, -847, 1086, -929, -697, 2535, 2173, 1301, 1648, 632, 2394, 2993, 663, 1782, -3236, -569, 276, -3202, 144, -1304, -1119, -204, 174, 2490, 868, 2026, 4177, 2012, 1911, 527, -1010, 952, -1021, 260, -679, 591, -1654, -1695, -583, 293, 573, 179, -1535, -953, -222, 436, -2369, -1551, -589, -1754, -868, -1487, 62, -1707, -1105, -995, -983, -2238, -2128, 3652, -20, -1615, 3958, -955, 207, 3346, -330, 45, 850, 1344, -769, -155, -363, -155, -1077, -275, -3300, -1931, -1980, -1837, -1878, -3908, -2278, -714, -1130, -2498, 499, 68, 92, -436, 1744, -1024, 138, 1592, -1731, -1373, -1033, -1641, -801, -871, -633, -152, 38, -14, 2053, -545, -77, 2292, -1312, 1599, 3021, -1786, 2805, -3266, -1317, -856, -1060, -1508, -168, -1839, -2728, -645, -643, -113, 212, 1958, 1054, 1988, 2042, 336, 1952, 2801, 676, 1222, 1172, 1097, 1442, -183, 1620, 625, -320, 552, 1332, -1067, 1819, 1317, 2221, 1976, 1936, 578, 410, -1028, -2407, 1475, -1598, 651, 349, -823, 2251, 556, 2267, -372, 817, -1346, -480, 833, 453, 620, 938, -232, 2310, 625, -933, 1333, -348, -322, -2908, 631, -1978, -2842, 515, 616, 1851, 811, -2543, 2909, -532, -468, -1059, 194, -361, -1884, -712, -54, -1443, -1356, -1502, 409, 1289, 366, -1302, -428, -171, -3751, -2547, -2103, -2039, -1686, -2056, -3653, -2945, -3212, 1506, 649, 41, 378, -1095, 410, 2259, 2009, 335, 253, -107, -488, 1448, 1097, 1997, 575, 1800, 2543, 131, -553, 377, -956, 1422, 764, -26, -276, 1985, -472, 1628, 1636, 858, 334, 313, -795, 198, 1514, -418, -1743, -3672, -844, 991, -1005, 98, -1385, -2491, 2040, -426, 680, 1319, 1769, 2660, 1605, -34, -267, -1505, 640, -1405, 1782, -137, -492, 1221, 358, 129, 861, 696, 91, 66, -1286, -856, 1430, 889, -338, 1380, 2114, 233, 1262, 1538, 1088, 3797, 2300, 984, 1002, 508, 1943, 57, 771, -1310, -236, -1265, 1314, 559, 290, 2760, 638, 2214, 4341, 990, 1509, 2122, 366, -529, 559, 1676, 525, 2005, -1596, -2284, -1867, 756, 1928, 440, 3135, 745, 2929, 2582, 1072, -990, -1987, -457, 263, -42, 1438, 159, -1134, 1490, -267, 878, 345, -732, 2524, 1459, 738, -244, -361, -864, -108, -914, 202, 1701, -454, 1078, 394, 649, 1657, -407, 1820, -379, -197, 1127, 292, -518, 1231, 550, -2433, -1856, -1458, -1780, -1222, -842, -1469, -571, 669, 1710, -1127, 866, -749, 31, -51, -1754, 311, -453, -1742, -420, -1527, 403, 814, -1314, -597, -1018, -299, -965, -671, 1465, -40, 493, 1376, 174, 2366, 1639, -1989, 832, 521, -3187, 1804, -86, -705, 1388, -1305, -1749, -1910, -2802, -2153, 635, -1129, 1, 198, -1425, 343, 999, 2770, 1807, -297, -118, 1575, 949, 4147, 1010, 1102, 319, 1732, -468, -1209, 229, -244, -2508, -157, 727, -1119, -1116, -143, -2136, -1761, -2281, -1054, 2242, 970, 2865, 3347, 2830, 4279, 1800, 810, 3101, 1679, 282, 2393, 1881, 2952, 3300, 1442, 97, 403, -441, -554, 159, -115, 1747, 447, 1261, 376, 1547, 1018, 1358, 1165, -32, 1847, 1243, 965, 1316, -51, 1526, 2889, 1537, 1503, 1141, 1364, 1474, -856, -713, 597, 557, 349, 2917, 1770, 1450, -1216, -86, -559, 415, 1404, 853, -310, 574, 760, 2041, 2896, 3813, -120, 1376, 583, -257, -1293, -1990, -298, 1139, -1073, -515, 725, 288, -255, 1976, 279, 1623, 1156, 1380, 1433, 1195, 2545, 781, -487, 647, 2758, 1388, 37, -1484, -2039, 595, 1859, -988, 896, 289, -2744, 2430, -800, -229, 816, -2075, 139, -310, -4224, -2883, 534, -504, -862, -1034, -336, 334, -296, -2178, -511, 197, 368, -1735, 305, 330, -685, 264, 630, 148, -462, -1940, -729, 937, -1725, -2243, 226, -1561, 2412, 3653, 1052, -1166, 57, 1493, 1126, -2, 1291, 1069, 1205, 798, 194, 2091, 1378, 712, 1388, 184, -389, -883, -495, 694, 59, 580, -989, -631, 1248, -2518, -349, -1123, -1077, -131, 2028, -79, 896, 3352, 1075, 112, 2115, 752, -1471, 758, 25, -1826, 626, -772, -652, 155, -959, 1772, 473, -1093, 1623, 1167, 1816, 2863, -131, 2632, 1600, -2516, 1115, 1137, -394, 1245, 926, 1200, -1610, 867, -617, -150, 465, 184, -711, 257, -1077, 1229, -701, -2165, -468, -2080, -2775, -1332, -2192, -7, -449, -1879, -2098, -652, -2003, -1266, 101, -830, -1214, -920, -1295, -1980, -710, 279, -1089, 85, -2202, 232, -73, -1111, 280, -1826, 763, 512, -2148, -1251, 1691, 748, -101, -795, -454, 1536, 496, -151, 728, 4163, -220, 1502, 1334, 50, 597, 1528, 1367, -16, -18, 1212, 2594, 2464, 1721, 479, 672, 2012, 1013, -651, -859, 1293, 2121, 544, -8, 2121, 233, 1187, -2638, -3056, -1263, -2817, -1866, -1911, -920, -1364, -509, 992, 660, 2760, -548, -170, 1092, -2068, 822, -416, 1565, -633, 2482, 1952, 4254, 3343, 2724, 2279, 4288, -2395, -916, -1003, 852, 342, 1314, -4, 1055, 889, -1309, 1215, -237, -1881, 149, -418, -1489, 2298, 211, -2704, -549, -3555, -2073, 2623, -1353, -1570, 655, -2681, 2207, -1208, -852, -146, 426, -995, 19, -2387, -1690, -1051, -2051, -1621, -3310, -2905, -2711, -2069, -1667, -4123, 783, 153, 478, 1801, 903, 1235, 64, -2247, -57, -2172, -2333, -657, -2058, -1606, -159, -4091, -2614, -3690, 6231, -122, 1126, -912, -983, -2741, 4554, 2018, 310, -295, -2944, -1907, -3435, -2592, -1085, -983, -2247, -2587, -1434, -1415, -3194, 989, 279, 122, 257, -417, 789, 1503, -103, 2495, -1643, -2020, 492, 2342, -2748, 3942, -172, 2013, 510, 1181, 803, -740, -2365, 1404, 1215, 659, -359, 2003, 2415, -378, 3298, 1100, 1202, 2861, -2501, 323, -1324, -2868, -682, -1097, -1277, -1168, -2115, -686, -135, -1197, -235, -4816, -990, -229, 263, -361, -1469, -1888, -947, -609, -2330, 714, -1144, -1583, 575, 420, 1043, 1205, 2691, 3760, -506, 2831, 3406, 2147, 3203, 3281, 1644, 3102, 1757, 1986, 3845, 2382, 2233, 1608, -115, 1852, 534, 1479, 1759, -6, 124, 998, 525, 639, 494, -1232, -1885, -51, -620, -76, 432, 1840, 1550, 2103, 3187, 3033, 4070, 3828, 2451, 2524, 1683, -713, 863, -1055, 863, 1949, -1120, -398, 1714, 898, 116, -177, 551, 163, 643, -254, -408, -1050, -700, 287, -1294, 3000, 175, 669, -2636, -1626, -1305, 1459, -2018, 1115, 22, -1293, -373, 207, -1763, -1014, -1901, -1278, -2659, -4098, -2131, -2518, -1805, -2003, -2015, -2421, 1174, -2084, -724, -1246, -683, -339, 2352, -377, -3340, -784, -2398, -1389, 612, -346, -1885, -432, -1567, -3702, -958, -2122, -4628, -2649, -3692, -2737, -4272, -3824, 182, 910, 426, 96, 616, -1195, 1562, -287, -455, -676, 2134, 999, 1665, 641, 751, -1871, 376, 292, 3704, 2596, -576, 1775, 789, 2323, 1623, 1407, 1854, 659, -182, -1222, -913, 1001, -605, -3230, -416, -1479, 1086, 83, -1262, -518, -290, -979, -951, -1901, -2253, 3243, 1608, 1105, 378, -1084, 298, -588, -645, 623, -1307, 1339, 908, 553, -550, -853, 818, -26, 138, 2307, 371, 1041, 508, 2109, 775, -1024, 2157, -332, 3732, 1902, 1634, 2398, 591, 2568, 2977, 2180, 2079, 104, 61, -101, -1674, -1084, -1670, 815, -579, 830, 806, -394, -820, -846, -10, -2198, 2095, 1399, -2521, 3846, 1146, -931, 2541, 1666, 588, 3826, 960, 1867, 3247, 19, -30, 473, -562, -1543, 1343, -594, -379, 1335, 1196, 2385, 420, 109, 241, 1280, 2149, 1580, -328, 1282, 3415, 715, -1187, 1901, 345, -1275, 4096, 330, 780, -31, 1891, 141, 2902, 2299, 54, 1946, 232, -592, 1774, 1554, 649, 1768, 1491, 13, 3099, -1051, -306, 511, -913, 46, 1356, 1267, -2031, -776, -658, 793, -98, -2006, 1206, -33, -1236, 3033, -1306, -1582, -1190, -1608, -1493, -1309, -934, -1652, 687, -726, 4562, 539, 4351, -43, -522, 455, 1359, -1038, -2431, -3401, -1219, -2980, -1447, -877, -2628, 890, -536, -451, -4507, -5686, -2245, -3419, -2620, -362, -3025, -1815, -1091, -2840, -1225, -86, -830, -1347, 847, -2632, -1522, -1348, 1062, -1883, 159, 3446, -1820, 1785, 178, -307, 433, -3063, -2409, -2908, -1823, -1325, -1045, -3841, -2726, -4216, 1169, 1068, 1510, -637, -25, -1747, -557, -530, -1387, 895, -2815, -1871, -1759, 253, -1302, -530, -986, -4296, -2646, -1863, -2600, -989, -765, -48, 1044, -1127, 935, -17, -401, -3414, 2438, -233, -1003, 754, 1221, 962, 1059, 1968, 263, -1022, 1509, -1054, -698, 2049, -91, 281, 1167, 1165, 384, -79, -706, 1938, 886, 619, -2773, -2021, -1240, -2732, -794, -1670, -722, 188, 1780, -1002, 182, -2041, -532, 1505, -1387, 27, 916, 1244, 1760, -132, 475, -1179, -315, -1345, -357, 576, -1575, -655, 200, -263, 1391, 437, -292, 686, -457, -238, 139, -280, 2325, 838, -129, -5, 2986, 2371, 617, -2380, -2186, -3364, -2152, -303, 1212, -2605, -1832, -1255, 1455, 401, 4795, 15, 949, 4059, 599, 562, 1728, 581, -328, 1167, 1000, -779, -651, 296, 579, -2339, 263, 594, -314, -1158, -73, 431, -2233, 157, -573, 413, 1233, -1982, 525, 2503, -267, 2173, 2477, 315, -2528, -972, -4106, 1020, -1079, -1457, -302, -593, -790, 2658, 1115, 2294, 2756, 1350, 208, 303, -704, 3063, -843, 522, -305, -1812, -1205, 1155, -3496, -2095, -2210, 608, 239, 2237, -335, -1081, 1783, -2785, -1153, 842, -225, 1033, -503, -486, 2512, 1287, -502, 1122, 247, -1903, -1592, -1308, -1455, -2928, -1988, -1541, -2029, -510, 1942, 594, 742, 2170, 302, 379, 405, 868, 651, 2305, -674, 3792, 1313, -430, 497, 3253, 1506, 753, 4568, -88, 1377, 934, 2575, 2047, 1661, 800, 988, -2248, -941, 1664, 474, 240, 353, -2781, -1587, 64, 305, -526, 2308, 3419, 1833, 3511, 387, 1723, 2461, -1495, -62, -1037, -415, 896, -1936, 1105, 1043, 699, 242, -534, 482, -587, -3094, -3374, 608, -1052, -1047, -708, 170, 3781, -830, 1082, 1092, 206, 703, 1843, 1238, -6, 572, 1145, 861, 401, 2131, -164, 1451, 1056, 768, 1673, 3382, 1599, 1240, 2073, 1093, 889, -2155, -1580, -3900, -2225, -1927, -2176, -2122, -2995, -5025, 1947, 1162, 1674, 1292, 2318, -71, 2373, -644, -209, 981, 884, 975, 3085, 3847, 1671, 1233, 237, 3971, -659, 840, -1502, -803, -1543, 1086, -11, -225, -2023, 697, 2230, 2577, 2499, 1245, 1111, 505, 633, 1820, -1864, -396, -463, -2299, -1123, -96, -1511, -329, -567, 4485, 3964, 1978, 5515, 5779, 3180, 6030, 3568, 4047, 771, -1097, 849, 2494, 1578, 2020, 1999, 191, 976, 400, -16, -1124, 784, 433, 515, 963, 486, 1352, 27, 868, -645, 546, 2165, 388, 1817, 2944, 114, 764, -987, -1206, 2141, 1828, 1139, 1969, 997, -312, 354, 913, 1862, -97, 2014, 3358, -1035, -1383, -771, -1495, -1789, -2039, -603, -925, 1186, -220, -383, 1424, -1717, -147, 7, 2499, 233, 23, 367, -245, -436, 1009, -801, 67, 246, -1964, -661, -441, -2139, 216, 773, 3821, -228, -1643, -109, -1118, 678, -104, 260, -2344, -1423, -703, -1920, -10, 1380, -1834, -256, 1160, -923, -2253, -3191, -1316, -466, -3101, -12, -1878, -5251, 2329, 2186, 1039, -57, -1281, -2368, 167, 1092, -754, 1059, 3446, 1716, 1971, 3554, 3273, 1540, 881, 557, -707, 1203, -337, -1045, -1130, -1572, -743, -151, -751, -722, 885, -968, -1179, -168, -3522, -386, -145, -1665, 2218, 1811, -55, -1471, -123, -561, 1053, 1260, -81, 501, 1678, 1619, 2177, 4597, 2215, -602, 1265, 1128, -390, 715, -384, 478, -1726, 676, 253, -1759, -1565, -378, 1666, -27, 306, 1973, 801, 3143, 1813, 530, 363, -1909, -3420, -658, -3245, -891, 608, -1339, -1743, 591, 1357, -482, -947, 1134, -579, -1304, -454, -665, -984, -146, 468, -2723, -1221, -47, 621, -1258, 1084, 1165, 633, 2554, 1644, 2273, 1432, 401, 689, 3485, -1383, -2070, 1551, -1023, -810, 1205, -406, -1210, -29, -725, -1142, -1993, -187, -648, -1589, -771, -889, -1881, -1356, -2524, 287, -353, -969, -1293, 486, 334, 1861, -495, -868, -98, -1522, -610, -1025, -1515, -1045, -500, -828, -1063, -828, -1229, -1725, -458, -136, -1939, -1593, 1538, 190, 2658, -33, 676, 3147, -956, 691, 726, 206, -966, 326, -412, -255, 666, -1061, -557, 131, 836, -581, -1644, 661, 378, -956, 1724, 198, -558, -519, -2153, -1931, 1544, 1176, -3755, -272, -1275, -500, -1093, 409, 216, -2211, 690, -1709, -2456, -101, -1130, -359, 1381, 190, 415, 1633, 2611, -887, 2141, 2351, 465, -1341, 1319, 1059, 543, 36, -839, 687, -1700, -1890, -1706, 212, 390, 485, 946, 926, -1282, 448, 288, 757, -1948, -1735, -2710, -1519, -2917, -1358, -1311, -250, -1790, 232, 106, -2561, -2535, -786, -3101, -1367, -351, -578, 1533, -629, 879, 159, 1514, -61, 1784, -1389, 40, -926, -1659, -1490, -942, -820, 1474, 190, -399, -1082, 359, 779, -1920, -1326, 2959, -900, 283, -374, 268, 388, 1194, -744, -1188, -1758, -468, -563, -467, -2710, -855, -708, -1485, -483, -87, -1192, 505, 434, -993, -967, -1787, 76, -941, -1651, -652, 65, 4590, 2303, 2042, 2228, 3579, 1581, 328, 1693, 2293, 557, -514, -327, 187, -164, -826, 159, -1917, -1625, -1034, -1707, 1610, -1175, 885, -1414, -782, -791, -1295, 2091, 2281, 1438, 4233, 2928, 1961, 1930, 1693, 2641, -2279, -2466, -1507, -475, -2844, -3234, -2901, -4575, -1087, -862, 2007, 1988, -1479, -917, 258, 946, 970, -2088, 1304, -515, -2762, -295, 719, -2168, 1, 30, 319, -1127, -1775, -1814, -2785, -2613, -432, 1310, 199, -310, 152, 3916, 3090, 2656, 2460, 3188, 1208, 1931, -680, -717, -2602, 784, -243, -852, 32, 395, 264, 2200, -1130, 1766, -1383, -4570, -459, -949, -994, 1324, -239, 472, 563, 3169, 2424, 361, 3269, 3004, 5570, 5279, 1355, 1163, -3051, 855, -169, -599, -47, 499, -1282, 2296, -586, 338, 2489, 214, -2276, 2756, -1332, 370, 545, 2363, 2963, 149, 445, 3211, 3319, 2824, 2360, 394, 2307, -1288, -16, 1545, -3326, 867, 2275, 677, -754, 120, -2014, 1699, 2874, 66, 79, 92, -454, -946, -915, 186, 6, -70, -1764, 1328, 495, -210, -729, -1059, 558, 224, -921, 3717, -670, -967, 574, -798, 16, -1945, -158, 683, -1181, 1016, 997, -3085, -317, 822, 1599, -1242, 962, 686, 461, 446, 579, 345, 1515, -1410, 533, 370, -77, -468, 1194, 1567, 1590, 546, -1063, 1508, 377, 1117, 2985, 572, 52, -1668, -986, 217, -1387, 2925, 1988, 150, 1485, 3111, 1087, -21, 3447, 936, 160, 2106, -895, 133, 1734, 445, -1153, -452, -936, -1109, 725, 318, -263, 531, 20, 1769, -470, 1391, 121, 1161, 546, -342, 3223, -431, -513, -1599, 1832, 352, -537, -1267, 476, 1693, -732, 330, -940, -74, 259, 1600, 341, -1535, -639, -50, -439, 2637, -531, -143, 2919, 2020, 761, 2066, -493, -1948, -240, -3023, -3906, -3122, -1128, -1669, -2397, 674, -545, -161, 146, -1451, 1953, 527, 672, -143, -2072, -3527, -5083, -2079, -1482, -3063, -3167, -2838, -1129, -907, -1659, -1361, -587, -2071, -3007, 6, -712, -1526, 1751, -820, -1234, -1097, -2018, -1825, -831, -1902, -2449, -193, 1294, 474, 2133, -317, 737, -236, 605, 290, 408, -712, 242, 2680, -607, -1801, 1111, 250, -1544, 705, -341, 248, -2222, -1089, 96, 1773, -529, 236, 2950, 572, 1672, 980, -1527, -1073, 3790, 930, 748, 3467, -6, 329, 943, -1422, -170, 1193, -3038, -1177, 1694, -637, 286, -43, 1381, -228, 1482, 1432, 157, 1067, 475, -386, 276, 1458, 550, 544, 2093, 1575, 1930, 1298, 1876, 788, -616, 2081, 1319, -354, 1952, 2546, -131, -2418, 994, 907, -1694, 98, -2301, -3863, 740, 234, 1431, -413, 748, 954, -754, 1232, 950, -2970, -1160, -124, -542, 2222, 1030, -1158, -241, -131, 1569, 3164, 2534, 1026, 1692, 795, 3639, 1629, 1660, -2057, -2389, 290, -1740, 783, 2230, -627, -1379, 1088, -225, -719, -1317, 1302, -131, -1718, 873, 460, -768, -1058, 2111, 1443, 88, 4031, 2213, 1007, 3388, 769, -2352, 1196, -546, -1888, -507, -1907, -4177, 643, -1587, -2346, -1173, -240, -919, -646, -1727, 301, 67, -392, 1378, -347, 2125, 1584, 1303, 763, 2794, 1698, 1186, -703, -1779, 1530, -136, 2, 1426, -555, -440, 410, 2337, 2155, 1325, 2451, 4147, 909, 1437, 1178, 1218, 4637, 2573, 1, 1954, 1529, -947, -822, 397, 991, 2355, 32, 1523, 370, -94, 443, 1988, 1067, 1747, 3236, -1382, 588, -1080, -375, 200, 2455, 745, 196, -293, -1217, -2233, 1202, 1966, -9, -777, -1720, -3629, 502, 107, -1482, -1569, -3345, -2255, 284, -1318, -232, -1163, -794, -1518, 264, 1332, 179, 1694, -942, -449, 1487, -429, -2351, 3294, 616, -1101, 2898, -1390, -1742, -237, -545, -408, -2370, -1099, -291, -2070, -2023, 325, -1492, 680, -460, -911, 2886, 1822, -3274, 2776, -384, -702, -2621, -1545, -1534, -2916, -1389, -289, -3326, -1457, 81, 1651, -763, -354, 2255, 960, 981, 4321, 1515, 1258, 1470, 1776, -62, 1133, 3164, 1302, 1469, 2972, -1324, -522, 517, -1506, 86, 1702, -1484, 474, -265, -2134, -2386, -2687, 576, -216, -168, 204, 1114, -1405, 481, 998, 1619, -874, -152, 2072, -348, 458, 656, -2174, -1526, 403, -2466, -2484, -1294, -2500, -1729, -255, -466, -948, -1397, -1572, -1982, -2215, -353, 1220, -2013, -522, 319, -2065, -1926, 965, -434, -520, 1051, -960, 1240, 943, -234, 2546, -191, -25, 2742, 3566, 259, -368, -1909, -1107, 7, -2094, 1268, 827, -2238, 1947, -1165, 217, 808, 249, -703, 913, 546, 449, 644, 56, -339, -1267, -1974, 2539, -1026, -2677, 385, -2240, 909, 1345, -1152, 2461, 897, -1018, 2625, 900, 490, -362, -201, -1409, -1297, 2143, 1334, -1414, -511, -1647, 1851, 829, 1142, 295, 988, 2404, 1832, 1603, 2226, 2412, -909, -917, 2987, 1104, -125, 979, 140, -1033, -4483, -1944, -359, -3552, 194, -1568, -3203, -2576, -849, -340, -759, 200, 1886, 